{"learner":{"attributes":{"scikit_learn":"{\"_estimator_type\": \"classifier\"}"},"feature_names":[],"feature_types":[],"gradient_booster":{"model":{"gbtree_model_param":{"num_parallel_tree":"1","num_trees":"100"},"iteration_indptr":[0,1,2,3,4,5,6,7,8,9,10,11,12,13,14,15,16,17,18,19,20,21,22,23,24,25,26,27,28,29,30,31,32,33,34,35,36,37,38,39,40,41,42,43,44,45,46,47,48,49,50,51,52,53,54,55,56,57,58,59,60,61,62,63,64,65,66,67,68,69,70,71,72,73,74,75,76,77,78,79,80,81,82,83,84,85,86,87,88,89,90,91,92,93,94,95,96,97,98,99,100],"tree_info":[0,0,0,0,0,0,0,0,0,0,0,0,0,0,0,0,0,0,0,0,0,0,0,0,0,0,0,0,0,0,0,0,0,0,0,0,0,0,0,0,0,0,0,0,0,0,0,0,0,0,0,0,0,0,0,0,0,0,0,0,0,0,0,0,0,0,0,0,0,0,0,0,0,0,0,0,0,0,0,0,0,0,0,0,0,0,0,0,0,0,0,0,0,0,0,0,0,0,0,0],"trees":[{"base_weights":[-6.04101E-8,1.4159187E0,-1.1324552E0,1.8502706E0,4.628146E-1,9.221701E-2,-1.2480235E0,6.2622153E-3,9.4249606E-2,4.302665E-2,-3.9025676E-2,5.0954815E-2,-6.2191915E-2,-2.9835109E-2,-7.429588E-2],"categories":[],"categories_nodes":[],"categories_segments":[],"categories_sizes":[],"default_left":[0,0,0,0,0,0,0,0,0,0,0,0,0,0,0],"id":0,"left_children":[1,3,5,7,9,11,13,-1,-1,-1,-1,-1,-1,-1,-1],"loss_changes":[2.8479672E2,3.1818665E1,1.4082283E1,2.9914398E0,1.3549589E1,1.2958654E1,1.3096268E1,0E0,0E0,0E0,0E0,0E0,0E0,0E0,0E0],"parents":[2147483647,0,0,1,1,2,2,3,3,4,4,5,5,6,6],"right_children":[2,4,6,8,10,12,14,-1,-1,-1,-1,-1,-1,-1,-1],"split_conditions":[-2.080767E-1,-6.543614E-1,-1.3328832E0,-1.9809604E0,7.590937E-1,2.3093364E-1,-5.7984746E-1,6.2622153E-3,9.4249606E-2,4.302665E-2,-3.9025676E-2,5.0954815E-2,-6.2191915E-2,-2.9835109E-2,-7.429588E-2],"split_indices":[0,0,180,409,530,96,245,0,0,0,0,0,0,0,0],"split_type":[0,0,0,0,0,0,0,0,0,0,0,0,0,0,0],"sum_hessian":[1.7561337E2,7.7928444E1,9.768493E1,5.2885822E1,2.5042622E1,8.440748E0,8.924419E1,1.1343926E0,5.1751427E1,1.920664E1,5.8359804E0,5.1235533E0,3.3171952E0,2.4814297E1,6.4429886E1],"tree_param":{"num_deleted":"0","num_feature":"823","num_nodes":"15","size_leaf_vector":"1"}},{"base_weights":[-5.177803E-5,1.3487073E0,-1.0780867E0,1.7635512E0,4.40026E-1,-1.1774033E0,2.2841188E-1,8.9921154E-2,3.7641008E-3,4.1001238E-2,-3.7371363E-2,5.389317E-3,-6.448632E-2,-5.3000566E-2,5.3102035E-2],"categories":[],"categories_nodes":[],"categories_segments":[],"categories_sizes":[],"default_left":[0,0,0,0,0,0,0,0,0,0,0,0,0,0,0],"id":1,"left_children":[1,3,5,7,9,11,13,-1,-1,-1,-1,-1,-1,-1,-1],"loss_changes":[2.579218E2,2.8928146E1,1.3061371E1,3.030075E0,1.2358953E1,1.3388786E1,9.506118E0,0E0,0E0,0E0,0E0,0E0,0E0,0E0,0E0],"parents":[2147483647,0,0,1,1,2,2,3,3,4,4,5,5,6,6],"right_children":[2,4,6,8,10,12,14,-1,-1,-1,-1,-1,-1,-1,-1],"split_conditions":[-2.080767E-1,-6.543614E-1,1.5664413E0,1.5227882E0,7.590937E-1,-1.4791212E0,-2.807179E-1,8.9921154E-2,3.7641008E-3,4.1001238E-2,-3.7371363E-2,5.389317E-3,-6.448632E-2,-5.3000566E-2,5.3102035E-2],"split_indices":[0,0,729,666,530,497,183,0,0,0,0,0,0,0,0],"split_type":[0,0,0,0,0,0,0,0,0,0,0,0,0,0,0],"sum_hessian":[1.7538661E2,7.779903E1,9.758758E1,5.2767902E1,2.5031126E1,9.078513E1,6.8024426E0,5.1636097E1,1.1318083E0,1.919722E1,5.833906E0,7.29997E0,8.348517E1,2.5655966E0,4.236846E0],"tree_param":{"num_deleted":"0","num_feature":"823","num_nodes":"15","size_leaf_vector":"1"}},{"base_weights":[2.0383007E-4,1.2884294E0,-1.0274361E0,1.687408E0,4.1868696E-1,-4.501631E-1,-1.2609957E0,8.6086415E-2,2.539031E-3,3.9103176E-2,-3.5809167E-2,-5.4824382E-2,9.395515E-3,-7.2715595E-2,-1.7446779E-2],"categories":[],"categories_nodes":[],"categories_segments":[],"categories_sizes":[],"default_left":[0,0,0,0,0,0,0,0,0,0,0,0,0,0,0],"id":2,"left_children":[1,3,5,7,9,11,13,-1,-1,-1,-1,-1,-1,-1,-1],"loss_changes":[2.3403589E2,2.6515305E1,1.2691254E1,2.914688E0,1.1281908E1,1.2529377E1,1.1739059E1,0E0,0E0,0E0,0E0,0E0,0E0,0E0,0E0],"parents":[2147483647,0,0,1,1,2,2,3,3,4,4,5,5,6,6],"right_children":[2,4,6,8,10,12,14,-1,-1,-1,-1,-1,-1,-1,-1],"split_conditions":[-2.080767E-1,-6.543614E-1,-1.0649676E0,1.9043097E0,7.590937E-1,-1.91693E-1,9.1896474E-1,8.6086415E-2,2.539031E-3,3.9103176E-2,-3.5809167E-2,-5.4824382E-2,9.395515E-3,-7.2715595E-2,-1.7446779E-2],"split_indices":[0,0,810,429,530,447,383,0,0,0,0,0,0,0,0],"split_type":[0,0,0,0,0,0,0,0,0,0,0,0,0,0,0],"sum_hessian":[1.7478671E2,7.7447075E1,9.733963E1,5.2447582E1,2.4999498E1,2.888182E1,6.845781E1,5.1319412E1,1.1281699E0,1.9171738E1,5.8277607E0,1.399123E1,1.489059E1,5.599486E1,1.2462949E1],"tree_param":{"num_deleted":"0","num_feature":"823","num_nodes":"15","size_leaf_vector":"1"}},{"base_weights":[-6.4461524E-6,1.2339811E0,-9.812884E-1,1.6200422E0,3.986509E-1,1.4931084E-1,-1.0891378E0,1.926225E-3,8.2683496E-2,-4.7653865E-2,3.512088E-2,-5.8245935E-2,5.2542068E-2,-2.418994E-2,-6.5615736E-2],"categories":[],"categories_nodes":[],"categories_segments":[],"categories_sizes":[],"default_left":[0,0,0,0,0,0,0,0,0,0,0,0,0,0,0],"id":3,"left_children":[1,3,5,7,9,11,13,-1,-1,-1,-1,-1,-1,-1,-1],"loss_changes":[2.1295999E2,2.4477364E1,1.2108116E1,2.7525177E0,1.1325022E1,1.2374209E1,1.1463875E1,0E0,0E0,0E0,0E0,0E0,0E0,0E0,0E0],"parents":[2147483647,0,0,1,1,2,2,3,3,4,4,5,5,6,6],"right_children":[2,4,6,8,10,12,14,-1,-1,-1,-1,-1,-1,-1,-1],"split_conditions":[-2.080767E-1,-6.543614E-1,-1.3328832E0,-1.9809604E0,-8.809968E-1,4.8526388E-2,-5.7984746E-1,1.926225E-3,8.2683496E-2,-4.7653865E-2,3.512088E-2,-5.8245935E-2,5.2542068E-2,-2.418994E-2,-6.5615736E-2],"split_indices":[0,0,180,409,663,750,245,0,0,0,0,0,0,0,0],"split_type":[0,0,0,0,0,0,0,0,0,0,0,0,0,0,0],"sum_hessian":[1.7387068E2,7.690417E1,9.696651E1,5.195359E1,2.4950577E1,8.410783E0,8.8555725E1,1.1263607E0,5.082723E1,4.1859636E0,2.0764612E1,3.3032408E0,5.107542E0,2.470752E1,6.384821E1],"tree_param":{"num_deleted":"0","num_feature":"823","num_nodes":"15","size_leaf_vector":"1"}},{"base_weights":[-7.833186E-5,1.183662E0,-9.382218E-1,1.5600079E0,3.7862343E-1,-3.944915E-1,-1.159759E0,7.970973E-2,-1.7352967E-4,5.196931E-2,-1.1916304E-2,-3.9933357E-2,2.6863595E-2,-6.729176E-2,-1.4533939E-2],"categories":[],"categories_nodes":[],"categories_segments":[],"categories_sizes":[],"default_left":[0,0,0,0,0,0,0,0,0,0,0,0,0,0,0],"id":4,"left_children":[1,3,5,7,9,11,13,-1,-1,-1,-1,-1,-1,-1,-1],"loss_changes":[1.9400342E2,2.2810387E1,1.128196E1,2.801651E0,1.0816519E1,1.1624796E1,1.0723389E1,0E0,0E0,0E0,0E0,0E0,0E0,0E0,0E0],"parents":[2147483647,0,0,1,1,2,2,3,3,4,4,5,5,6,6],"right_children":[2,4,6,8,10,12,14,-1,-1,-1,-1,-1,-1,-1,-1],"split_conditions":[-2.080767E-1,-6.543614E-1,-1.0649676E0,1.5227882E0,-1.8129763E-1,5.7275325E-1,9.1896474E-1,7.970973E-2,-1.7352967E-4,5.196931E-2,-1.1916304E-2,-3.9933357E-2,2.6863595E-2,-6.729176E-2,-1.4533939E-2],"split_indices":[0,0,810,666,99,635,383,0,0,0,0,0,0,0,0],"split_type":[0,0,0,0,0,0,0,0,0,0,0,0,0,0,0],"sum_hessian":[1.7269626E2,7.623808E1,9.645818E1,5.1312363E1,2.4925722E1,2.8728655E1,6.772952E1,5.019516E1,1.1172004E0,1.1704886E1,1.3220837E1,2.0136702E1,8.591953E0,5.533364E1,1.2395884E1],"tree_param":{"num_deleted":"0","num_feature":"823","num_nodes":"15","size_leaf_vector":"1"}},{"base_weights":[1.3877697E-4,1.1381994E0,-8.979667E-1,1.5060377E0,3.6179256E-1,-9.910483E-1,2.9967916E-1,7.6994255E-2,-7.4665406E-4,-4.6103697E-2,3.2609697E-2,9.835048E-3,-5.4861315E-2,-4.0398017E-2,6.0690176E-2],"categories":[],"categories_nodes":[],"categories_segments":[],"categories_sizes":[],"default_left":[0,0,0,0,0,0,0,0,0,0,0,0,0,0,0],"id":5,"left_children":[1,3,5,7,9,11,13,-1,-1,-1,-1,-1,-1,-1,-1],"loss_changes":[1.7713048E2,2.128547E1,1.1095047E1,2.6768417E0,1.0253679E1,1.1579712E1,8.830854E0,0E0,0E0,0E0,0E0,0E0,0E0,0E0,0E0],"parents":[2147483647,0,0,1,1,2,2,3,3,4,4,5,5,6,6],"right_children":[2,4,6,8,10,12,14,-1,-1,-1,-1,-1,-1,-1,-1],"split_conditions":[-2.080767E-1,-6.543614E-1,1.5664413E0,1.9043097E0,-8.809968E-1,-1.4791212E0,-1.02252856E-1,7.6994255E-2,-7.4665406E-4,-4.6103697E-2,3.2609697E-2,9.835048E-3,-5.4861315E-2,-4.0398017E-2,6.0690176E-2],"split_indices":[0,0,729,429,663,497,560,0,0,0,0,0,0,0,0],"split_type":[0,0,0,0,0,0,0,0,0,0,0,0,0,0,0],"sum_hessian":[1.7130081E2,7.543889E1,9.586193E1,5.055004E1,2.4888845E1,8.910886E1,6.7530785E0,4.943744E1,1.1126027E0,4.189936E0,2.069891E1,7.2421966E0,8.186665E1,3.1058612E0,3.6472173E0],"tree_param":{"num_deleted":"0","num_feature":"823","num_nodes":"15","size_leaf_vector":"1"}},{"base_weights":[4.434399E-4,1.0355034E0,-9.1020745E-1,1.4572848E0,3.0505642E-1,2.4033542E-1,-1.0251403E0,-1.8042604E-3,7.4567795E-2,3.375234E-2,-4.629365E-2,-5.1350325E-2,5.18288E-2,-2.0601345E-2,-6.267716E-2],"categories":[],"categories_nodes":[],"categories_segments":[],"categories_sizes":[],"default_left":[0,0,0,0,0,0,0,0,0,0,0,0,0,0,0],"id":6,"left_children":[1,3,5,7,9,11,13,-1,-1,-1,-1,-1,-1,-1,-1],"loss_changes":[1.6186064E2,2.4316696E1,1.2326164E1,2.6327286E0,1.4599907E1,1.0254254E1,1.1140747E1,0E0,0E0,0E0,0E0,0E0,0E0,0E0,0E0],"parents":[2147483647,0,0,1,1,2,2,3,3,4,4,5,5,6,6],"right_children":[2,4,6,8,10,12,14,-1,-1,-1,-1,-1,-1,-1,-1],"split_conditions":[-1.1881976E-1,-6.543614E-1,-1.3328832E0,-1.9809604E0,5.0161576E-1,4.8526388E-2,-5.7984746E-1,-1.8042604E-3,7.4567795E-2,3.375234E-2,-4.629365E-2,-5.1350325E-2,5.18288E-2,-2.0601345E-2,-6.267716E-2],"split_indices":[0,0,180,409,109,750,245,0,0,0,0,0,0,0,0],"split_type":[0,0,0,0,0,0,0,0,0,0,0,0,0,0,0],"sum_hessian":[1.6972124E2,7.9370445E1,9.0350784E1,4.9685516E1,2.9684927E1,8.106731E0,8.224406E1,1.1069663E0,4.8578552E1,2.3171638E1,6.51329E0,3.0161831E0,5.090548E0,2.3083576E1,5.9160477E1],"tree_param":{"num_deleted":"0","num_feature":"823","num_nodes":"15","size_leaf_vector":"1"}},{"base_weights":[3.675652E-4,1.0564343E0,-8.2463753E-1,1.4817754E0,4.2611665E-1,-3.9983886E-1,-1.0913626E0,1.863572E-2,7.620257E-2,3.815019E-2,-3.0806202E-2,5.9492756E-2,-3.0564055E-2,2.7194122E-2,-5.963676E-2],"categories":[],"categories_nodes":[],"categories_segments":[],"categories_sizes":[],"default_left":[0,0,0,0,0,0,0,0,0,0,0,0,0,0,0],"id":7,"left_children":[1,3,5,7,9,11,13,-1,-1,-1,-1,-1,-1,-1,-1],"loss_changes":[1.4808278E2,1.9353561E1,1.0375252E1,1.4999008E0,1.1508597E1,1.3628841E1,1.0269653E1,0E0,0E0,0E0,0E0,0E0,0E0,0E0,0E0],"parents":[2147483647,0,0,1,1,2,2,3,3,4,4,5,5,6,6],"right_children":[2,4,6,8,10,12,14,-1,-1,-1,-1,-1,-1,-1,-1],"split_conditions":[-2.080767E-1,-7.4361837E-1,-2.4331886E-1,-1.4878961E0,6.3907844E-1,-1.2907625E0,-1.4445273E0,1.863572E-2,7.620257E-2,3.815019E-2,-3.0806202E-2,5.9492756E-2,-3.0564055E-2,2.7194122E-2,-5.963676E-2],"split_indices":[0,0,180,105,452,376,302,0,0,0,0,0,0,0,0],"split_type":[0,0,0,0,0,0,0,0,0,0,0,0,0,0,0],"sum_hessian":[1.6796394E2,7.354301E1,9.442094E1,4.310484E1,3.043817E1,3.738266E1,5.7038277E1,1.9432127E0,4.1161625E1,2.3205343E1,7.2328267E0,3.845273E0,3.3537388E1,3.0747166E0,5.3963562E1],"tree_param":{"num_deleted":"0","num_feature":"823","num_nodes":"15","size_leaf_vector":"1"}},{"base_weights":[1.0336364E-3,9.647882E-1,-8.390713E-1,1.441222E0,3.690367E-1,2.501202E-1,-9.496521E-1,1.7192403E-2,7.4191116E-2,6.799116E-2,1.6685419E-3,5.1150598E-2,-4.9512044E-2,-1.80452E-2,-5.8630515E-2],"categories":[],"categories_nodes":[],"categories_segments":[],"categories_sizes":[],"default_left":[0,0,0,0,0,0,0,0,0,0,0,0,0,0,0],"id":8,"left_children":[1,3,5,7,9,11,13,-1,-1,-1,-1,-1,-1,-1,-1],"loss_changes":[1.3614232E2,2.1695541E1,1.1057953E1,1.5078583E0,1.1974537E1,9.709779E0,1.0309944E1,0E0,0E0,0E0,0E0,0E0,0E0,0E0,0E0],"parents":[2147483647,0,0,1,1,2,2,3,3,4,4,5,5,6,6],"right_children":[2,4,6,8,10,12,14,-1,-1,-1,-1,-1,-1,-1,-1],"split_conditions":[-1.1881976E-1,-7.4361837E-1,-1.3328832E0,-1.5594126E0,-1.9632851E0,2.3093364E-1,-5.7984746E-1,1.7192403E-2,7.4191116E-2,6.799116E-2,1.6685419E-3,5.1150598E-2,-4.9512044E-2,-1.80452E-2,-5.8630515E-2],"split_indices":[0,0,180,722,799,96,245,0,0,0,0,0,0,0,0],"split_type":[0,0,0,0,0,0,0,0,0,0,0,0,0,0,0],"sum_hessian":[1.6614873E2,7.731072E1,8.8838005E1,4.216856E1,3.5142166E1,8.071733E0,8.076627E1,1.9148186E0,4.025374E1,8.1208105E0,2.7021355E1,5.0809383E0,2.9907951E0,2.2904053E1,5.786222E1],"tree_param":{"num_deleted":"0","num_feature":"823","num_nodes":"15","size_leaf_vector":"1"}},{"base_weights":[1.6017488E-3,9.3193495E-1,-8.062784E-1,1.4042752E0,3.5346863E-1,-9.5225346E-1,5.8482806E-3,1.629023E-2,7.23542E-2,3.7075308E-5,6.3621156E-2,1.0682766E-2,-5.302865E-2,-2.1351023E-2,7.490803E-2],"categories":[],"categories_nodes":[],"categories_segments":[],"categories_sizes":[],"default_left":[0,0,0,0,0,0,0,0,0,0,0,0,0,0,0],"id":9,"left_children":[1,3,5,7,9,11,13,-1,-1,-1,-1,-1,-1,-1,-1],"loss_changes":[1.2489497E2,2.0606041E1,1.0549507E1,1.4758835E0,1.1685114E1,9.74839E0,1.0035305E1,0E0,0E0,0E0,0E0,0E0,0E0,0E0,0E0],"parents":[2147483647,0,0,1,1,2,2,3,3,4,4,5,5,6,6],"right_children":[2,4,6,8,10,12,14,-1,-1,-1,-1,-1,-1,-1,-1],"split_conditions":[-1.1881976E-1,-7.4361837E-1,1.1492933E0,-1.4878961E0,5.423603E-1,-1.4237123E0,1.5760484E0,1.629023E-2,7.23542E-2,3.7075308E-5,6.3621156E-2,1.0682766E-2,-5.302865E-2,-2.1351023E-2,7.490803E-2],"split_indices":[0,0,451,105,535,83,813,0,0,0,0,0,0,0,0],"split_type":[0,0,0,0,0,0,0,0,0,0,0,0,0,0,0],"sum_hessian":[1.6417291E2,7.6232285E1,8.794062E1,4.11798E1,3.5052486E1,7.439585E1,1.3544766E1,1.9009281E0,3.927887E1,2.605317E1,8.999318E0,6.2415724E0,6.815428E1,1.105263E1,2.4921367E0],"tree_param":{"num_deleted":"0","num_feature":"823","num_nodes":"15","size_leaf_vector":"1"}},{"base_weights":[2.6364578E-3,1.2739747E0,-5.4719996E-1,1.3275576E0,-2.1438055E-2,-4.272275E-2,-8.9576334E-1,6.812832E-2,-6.8995045E-3,-3.3273913E-2,3.105331E-2,2.8968697E-2,-5.1169146E-2],"categories":[],"categories_nodes":[],"categories_segments":[],"categories_sizes":[],"default_left":[0,0,0,0,0,0,0,0,0,0,0,0,0],"id":10,"left_children":[1,3,5,7,-1,9,11,-1,-1,-1,-1,-1,-1],"loss_changes":[1.1477161E2,5.09182E0,2.0116852E1,2.6662445E0,0E0,2.0208118E1,1.334446E1,0E0,0E0,0E0,0E0,0E0,0E0],"parents":[2147483647,0,0,1,1,2,2,3,3,5,5,6,6],"right_children":[2,4,6,8,-1,10,12,-1,-1,-1,-1,-1,-1],"split_conditions":[-5.651045E-1,1.8727217E0,1.4895108E-1,1.5423876E0,-2.1438055E-2,1.3150579E-1,-1.479943E0,6.812832E-2,-6.8995045E-3,-3.3273913E-2,3.105331E-2,2.8968697E-2,-5.1169146E-2],"split_indices":[0,748,0,764,0,704,83,0,0,0,0,0,0],"split_type":[0,0,0,0,0,0,0,0,0,0,0,0,0],"sum_hessian":[1.6219016E2,4.8569706E1,1.1362045E2,4.730153E1,1.268179E0,4.688548E1,6.673497E1,4.6266582E1,1.034944E0,2.4189117E1,2.2696362E1,5.0319123E0,6.170306E1],"tree_param":{"num_deleted":"0","num_feature":"823","num_nodes":"13","size_leaf_vector":"1"}},{"base_weights":[2.7367831E-3,8.7405515E-1,-7.462817E-1,1.340194E0,3.2785365E-1,-2.2517034E-1,-9.703365E-1,1.29431365E-2,6.925537E-2,6.470121E-2,2.769292E-4,-4.4527356E-2,2.1069463E-2,-8.80795E-3,-5.926928E-2],"categories":[],"categories_nodes":[],"categories_segments":[],"categories_sizes":[],"default_left":[0,0,0,0,0,0,0,0,0,0,0,0,0,0,0],"id":11,"left_children":[1,3,5,7,9,11,13,-1,-1,-1,-1,-1,-1,-1,-1],"loss_changes":[1.0586223E2,1.865118E1,9.965969E0,1.5904694E0,1.115671E1,1.2218621E1,1.0157608E1,0E0,0E0,0E0,0E0,0E0,0E0,0E0,0E0],"parents":[2147483647,0,0,1,1,2,2,3,3,4,4,5,5,6,6],"right_children":[2,4,6,8,10,12,14,-1,-1,-1,-1,-1,-1,-1,-1],"split_conditions":[-1.1881976E-1,-7.4361837E-1,-1.0649676E0,-1.5594126E0,-1.9632851E0,-1.91693E-1,-7.4067897E-1,1.29431365E-2,6.925537E-2,6.470121E-2,2.769292E-4,-4.4527356E-2,2.1069463E-2,-8.80795E-3,-5.926928E-2],"split_indices":[0,0,810,722,799,447,34,0,0,0,0,0,0,0,0],"split_type":[0,0,0,0,0,0,0,0,0,0,0,0,0,0,0],"sum_hessian":[1.602083E2,7.398087E1,8.6227425E1,3.9131573E1,3.4849297E1,2.6529514E1,5.969791E1,1.830243E0,3.730133E1,7.963415E0,2.6885883E1,1.2888525E1,1.3640988E1,1.3108243E1,4.6589664E1],"tree_param":{"num_deleted":"0","num_feature":"823","num_nodes":"15","size_leaf_vector":"1"}},{"base_weights":[3.0666315E-3,1.2128615E0,-5.041537E-1,1.2674265E0,-2.173583E-2,-2.0164637E-1,-1.0266967E0,1.6043417E-2,6.7005605E-2,1.1582958E-2,-3.5186153E-2,-2.506253E-3,-6.498204E-2],"categories":[],"categories_nodes":[],"categories_segments":[],"categories_sizes":[],"default_left":[0,0,0,0,0,0,0,0,0,0,0,0,0],"id":12,"left_children":[1,3,5,7,-1,9,11,-1,-1,-1,-1,-1,-1],"loss_changes":[9.823768E1,4.802498E0,1.7624212E1,2.736992E0,0E0,1.5976559E1,1.0894165E1,0E0,0E0,0E0,0E0,0E0,0E0],"parents":[2147483647,0,0,1,1,2,2,3,3,5,5,6,6],"right_children":[2,4,6,8,-1,10,12,-1,-1,-1,-1,-1,-1],"split_conditions":[-5.651045E-1,1.8727217E0,5.059789E-1,-1.2672684E0,-2.173583E-2,-9.219528E-2,-1.0277543E0,1.6043417E-2,6.7005605E-2,1.1582958E-2,-3.5186153E-2,-2.506253E-3,-6.498204E-2],"split_indices":[0,748,0,84,0,232,315,0,0,0,0,0,0],"split_type":[0,0,0,0,0,0,0,0,0,0,0,0,0],"sum_hessian":[1.5809555E2,4.6291748E1,1.118038E2,4.5031128E1,1.2606188E0,7.1688324E1,4.011547E1,3.5974422E0,4.1433685E1,3.8768597E1,3.291973E1,9.021378E0,3.1094093E1],"tree_param":{"num_deleted":"0","num_feature":"823","num_nodes":"13","size_leaf_vector":"1"}},{"base_weights":[2.857281E-3,8.254705E-1,-6.955562E-1,1.2860554E0,3.1036747E-1,-8.790623E-1,-6.56009E-2,1.0575696E-2,6.6648476E-2,-1.2462414E-3,5.9667695E-2,-4.992894E-2,1.6370451E-2,-6.2627226E-2,1.849299E-2],"categories":[],"categories_nodes":[],"categories_segments":[],"categories_sizes":[],"default_left":[0,0,0,0,0,0,0,0,0,0,0,0,0,0,0],"id":13,"left_children":[1,3,5,7,9,11,13,-1,-1,-1,-1,-1,-1,-1,-1],"loss_changes":[9.0849174E1,1.6826786E1,9.828846E0,1.6343842E0,1.056739E1,9.865246E0,1.0993656E1,0E0,0E0,0E0,0E0,0E0,0E0,0E0,0E0],"parents":[2147483647,0,0,1,1,2,2,3,3,4,4,5,5,6,6],"right_children":[2,4,6,8,10,12,14,-1,-1,-1,-1,-1,-1,-1,-1],"split_conditions":[-1.1881976E-1,-7.4361837E-1,7.540815E-1,-1.4878961E0,5.423603E-1,1.5664413E0,-4.153019E-1,1.0575696E-2,6.6648476E-2,-1.2462414E-3,5.9667695E-2,-4.992894E-2,1.6370451E-2,-6.2627226E-2,1.849299E-2],"split_indices":[0,0,608,105,535,729,2,0,0,0,0,0,0,0,0],"split_type":[0,0,0,0,0,0,0,0,0,0,0,0,0,0,0],"sum_hessian":[1.5613005E2,7.160708E1,8.452298E1,3.7013958E1,3.459312E1,6.514948E1,1.9373491E1,1.7788537E0,3.5235104E1,2.577679E1,8.816328E0,5.943409E1,5.715398E0,4.6963077E0,1.4677183E1],"tree_param":{"num_deleted":"0","num_feature":"823","num_nodes":"15","size_leaf_vector":"1"}},{"base_weights":[3.2064763E-3,1.1593083E0,-4.6509433E-1,-1.919003E-2,1.2181393E0,-1.7924906E-1,-9.6859735E-1,6.286084E-2,-1.0899594E-2,4.235286E-3,-4.8229277E-2,-1.1177676E-3,-6.200831E-2],"categories":[],"categories_nodes":[],"categories_segments":[],"categories_sizes":[],"default_left":[0,0,0,0,0,0,0,0,0,0,0,0,0],"id":14,"left_children":[1,3,5,-1,7,9,11,-1,-1,-1,-1,-1,-1],"loss_changes":[8.4461845E1,4.5504E0,1.5807024E1,0E0,2.7187805E0,1.501789E1,1.0246422E1,0E0,0E0,0E0,0E0,0E0,0E0],"parents":[2147483647,0,0,1,1,2,2,4,4,5,5,6,6],"right_children":[2,4,6,-1,8,10,12,-1,-1,-1,-1,-1,-1],"split_conditions":[-5.651045E-1,-1.609576E0,5.059789E-1,-1.919003E-2,1.8727217E0,5.0161576E-1,-1.0277543E0,6.286084E-2,-1.0899594E-2,4.235286E-3,-4.8229277E-2,-1.1177676E-3,-6.200831E-2],"split_indices":[0,253,0,0,748,109,315,0,0,0,0,0,0],"split_type":[0,0,0,0,0,0,0,0,0,0,0,0,0],"sum_hessian":[1.5400948E2,4.397417E1,1.1003531E2,1.412086E0,4.2562084E1,7.105338E1,3.898193E1,4.155592E1,1.0061642E0,5.3847244E1,1.7206137E1,8.934231E0,3.00477E1],"tree_param":{"num_deleted":"0","num_feature":"823","num_nodes":"13","size_leaf_vector":"1"}},{"base_weights":[2.684064E-3,1.1326635E0,-4.4632652E-1,1.1890353E0,-2.1571709E-2,-1.3832182E-2,-7.588134E-1,1.2159225E-2,6.330844E-2,-3.011452E-2,3.0305559E-2,2.3087187E-2,-4.5688525E-2],"categories":[],"categories_nodes":[],"categories_segments":[],"categories_sizes":[],"default_left":[0,0,0,0,0,0,0,0,0,0,0,0,0],"id":15,"left_children":[1,3,5,7,-1,9,11,-1,-1,-1,-1,-1,-1],"loss_changes":[7.8137115E1,4.3742294E0,1.4884846E1,2.7953339E0,0E0,1.7601871E1,1.2520023E1,0E0,0E0,0E0,0E0,0E0,0E0],"parents":[2147483647,0,0,1,1,2,2,3,3,5,5,6,6],"right_children":[2,4,6,8,-1,10,12,-1,-1,-1,-1,-1,-1],"split_conditions":[-5.651045E-1,1.8727217E0,1.4895108E-1,-1.2672684E0,-2.1571709E-2,1.3150579E-1,-1.4532775E0,1.2159225E-2,6.330844E-2,-3.011452E-2,3.0305559E-2,2.3087187E-2,-4.5688525E-2],"split_indices":[0,748,0,84,0,704,615,0,0,0,0,0,0],"split_type":[0,0,0,0,0,0,0,0,0,0,0,0,0],"sum_hessian":[1.5200697E2,4.27926E1,1.0921438E2,4.1535416E1,1.2571863E0,4.624865E1,6.2965725E1,3.4449139E0,3.80905E1,2.3741444E1,2.2507208E1,6.870304E0,5.609542E1],"tree_param":{"num_deleted":"0","num_feature":"823","num_nodes":"13","size_leaf_vector":"1"}},{"base_weights":[2.899169E-3,8.094219E-1,-5.8751816E-1,6.3390285E-2,3.6085594E-1,1.6486433E-1,-7.2311604E-1,3.0298946E-2,-4.9742352E-2,-3.5001505E-2,5.123074E-2,4.5285255E-2,-3.962211E-2],"categories":[],"categories_nodes":[],"categories_segments":[],"categories_sizes":[],"default_left":[0,0,0,0,0,0,0,0,0,0,0,0,0],"id":16,"left_children":[1,3,5,-1,7,9,11,-1,-1,-1,-1,-1,-1],"loss_changes":[7.234195E1,1.2744545E1,9.067896E0,0E0,1.1851393E1,1.1282641E1,9.130829E0,0E0,0E0,0E0,0E0,0E0,0E0],"parents":[2147483647,0,0,1,1,2,2,4,4,5,5,6,6],"right_children":[2,4,6,-1,8,10,12,-1,-1,-1,-1,-1,-1],"split_conditions":[-2.080767E-1,-8.328753E-1,-1.0971773E0,6.3390285E-2,8.907719E-1,1.616435E-1,-1.7612954E0,3.0298946E-2,-4.9742352E-2,-3.5001505E-2,5.123074E-2,4.5285255E-2,-3.962211E-2],"split_indices":[0,0,391,0,458,521,302,0,0,0,0,0,0],"split_type":[0,0,0,0,0,0,0,0,0,0,0,0,0],"sum_hessian":[1.4992116E2,6.3207466E1,8.671369E1,3.0358332E1,3.2849136E1,1.3208545E1,7.350515E1,2.8287521E1,4.561616E0,6.677185E0,6.531359E0,2.5082922E0,7.099686E1],"tree_param":{"num_deleted":"0","num_feature":"823","num_nodes":"13","size_leaf_vector":"1"}},{"base_weights":[3.3339188E-3,1.0861748E0,-4.1123834E-1,-2.0828359E-2,1.1482149E0,-1.4667656E-1,-8.914297E-1,5.9567858E-2,-9.08479E-3,6.289548E-3,-4.418184E-2,2.03115E-3,-5.8439173E-2],"categories":[],"categories_nodes":[],"categories_segments":[],"categories_sizes":[],"default_left":[0,0,0,0,0,0,0,0,0,0,0,0,0],"id":17,"left_children":[1,3,5,-1,7,9,11,-1,-1,-1,-1,-1,-1],"loss_changes":[6.726091E1,4.3455696E0,1.363455E1,0E0,2.5173607E0,1.4379796E1,9.946808E0,0E0,0E0,0E0,0E0,0E0,0E0],"parents":[2147483647,0,0,1,1,2,2,4,4,5,5,6,6],"right_children":[2,4,6,-1,8,10,12,-1,-1,-1,-1,-1,-1],"split_conditions":[-5.651045E-1,-1.609576E0,5.059789E-1,-2.0828359E-2,1.8309377E0,5.7790774E-1,-1.0277543E0,5.9567858E-2,-9.08479E-3,6.289548E-3,-4.418184E-2,2.03115E-3,-5.8439173E-2],"split_indices":[0,253,0,0,397,609,315,0,0,0,0,0,0],"split_type":[0,0,0,0,0,0,0,0,0,0,0,0,0],"sum_hessian":[1.4783467E2,4.0480843E1,1.0735383E2,1.3784075E0,3.9102436E1,7.005979E1,3.7294037E1,3.797472E1,1.1277149E0,5.1754517E1,1.8305271E1,8.748401E0,2.8545635E1],"tree_param":{"num_deleted":"0","num_feature":"823","num_nodes":"13","size_leaf_vector":"1"}},{"base_weights":[2.8445818E-3,1.0629275E0,-3.9473245E-1,-2.0127779E-2,1.1255617E0,-4.8258014E-2,-7.400451E-1,-8.918307E-3,5.8461513E-2,2.4818739E-2,-2.6648466E-2,2.4892857E-2,-4.774336E-2],"categories":[],"categories_nodes":[],"categories_segments":[],"categories_sizes":[],"default_left":[0,0,0,0,0,0,0,0,0,0,0,0,0],"id":18,"left_children":[1,3,5,-1,7,9,11,-1,-1,-1,-1,-1,-1],"loss_changes":[6.2319664E1,4.154911E0,1.2830551E1,0E0,2.425808E0,1.47178E1,1.4779791E1,0E0,0E0,0E0,0E0,0E0,0E0],"parents":[2147483647,0,0,1,1,2,2,4,4,5,5,6,6],"right_children":[2,4,6,-1,8,10,12,-1,-1,-1,-1,-1,-1],"split_conditions":[-5.651045E-1,-1.609576E0,-9.219528E-2,-2.0127779E-2,-3.5082314E0,1.4895108E-1,-1.3645601E0,-8.918307E-3,5.8461513E-2,2.4818739E-2,-2.6648466E-2,2.4892857E-2,-4.774336E-2],"split_indices":[0,253,232,0,822,0,257,0,0,0,0,0,0],"split_type":[0,0,0,0,0,0,0,0,0,0,0,0,0],"sum_hessian":[1.4586903E2,3.9329357E1,1.0653967E2,1.3895826E0,3.7939774E1,5.3749294E1,5.279038E1,1.1294736E0,3.68103E1,2.5298855E1,2.8450441E1,7.611564E0,4.5178818E1],"tree_param":{"num_deleted":"0","num_feature":"823","num_nodes":"13","size_leaf_vector":"1"}},{"base_weights":[2.8677445E-3,7.0083797E-1,-5.65584E-1,6.079782E-2,2.9512888E-1,-7.1241623E-1,1.9269346E-1,2.6236752E-2,-5.3362865E-2,-8.092172E-3,-4.7360264E-2,-5.3459495E-2,3.0270973E-2],"categories":[],"categories_nodes":[],"categories_segments":[],"categories_sizes":[],"default_left":[0,0,0,0,0,0,0,0,0,0,0,0,0],"id":19,"left_children":[1,3,5,-1,7,9,11,-1,-1,-1,-1,-1,-1],"loss_changes":[5.786106E1,1.3320969E1,9.086367E0,0E0,1.2427474E1,8.578823E0,7.848194E0,0E0,0E0,0E0,0E0,0E0,0E0],"parents":[2147483647,0,0,1,1,2,2,4,4,5,5,6,6],"right_children":[2,4,6,-1,8,10,12,-1,-1,-1,-1,-1,-1],"split_conditions":[-1.1881976E-1,-8.328753E-1,1.1492933E0,6.079782E-2,9.8160017E-1,-1.0863168E0,-6.2255883E-1,2.6236752E-2,-5.3362865E-2,-8.092172E-3,-4.7360264E-2,-5.3459495E-2,3.0270973E-2],"split_indices":[0,0,451,0,353,810,90,0,0,0,0,0,0],"split_type":[0,0,0,0,0,0,0,0,0,0,0,0,0],"sum_hessian":[1.4383398E2,6.445742E1,7.9376564E1,2.7519499E1,3.6937923E1,6.65503E1,1.2826265E1,3.2136692E1,4.8012314E0,2.0400677E1,4.6149624E1,2.769165E0,1.00571E1],"tree_param":{"num_deleted":"0","num_feature":"823","num_nodes":"13","size_leaf_vector":"1"}},{"base_weights":[2.508602E-3,1.0219431E0,-3.651943E-1,1.0845666E0,-2.4129545E-2,4.4726378E-1,-5.01142E-1,6.209676E-3,5.857833E-2,3.964172E-2,-5.0224442E-2,1.8758526E-2,-3.3693366E-2],"categories":[],"categories_nodes":[],"categories_segments":[],"categories_sizes":[],"default_left":[0,0,0,0,0,0,0,0,0,0,0,0,0],"id":20,"left_children":[1,3,5,7,-1,9,11,-1,-1,-1,-1,-1,-1],"loss_changes":[5.3884464E1,4.1135826E0,1.18933325E1,2.9367409E0,0E0,8.659059E0,1.4023211E1,0E0,0E0,0E0,0E0,0E0,0E0],"parents":[2147483647,0,0,1,1,2,2,3,3,5,5,6,6],"right_children":[2,4,6,8,-1,10,12,-1,-1,-1,-1,-1,-1],"split_conditions":[-5.651045E-1,1.8727217E0,-3.3375354E0,-1.2672684E0,-2.4129545E-2,5.5511904E-1,-1.0265721E0,6.209676E-3,5.857833E-2,3.964172E-2,-5.0224442E-2,1.8758526E-2,-3.3693366E-2],"split_indices":[0,748,789,84,0,303,92,0,0,0,0,0,0],"split_type":[0,0,0,0,0,0,0,0,0,0,0,0,0],"sum_hessian":[1.4175415E2,3.7104595E1,1.0464956E2,3.5889877E1,1.214716E0,1.4672576E1,8.997699E1,3.182833E0,3.2707047E1,1.2218097E1,2.4544795E0,1.4621831E1,7.5355156E1],"tree_param":{"num_deleted":"0","num_feature":"823","num_nodes":"13","size_leaf_vector":"1"}},{"base_weights":[2.6463761E-3,6.656964E-1,-5.293648E-1,5.930757E-2,2.7823195E-1,-7.13079E-1,7.374154E-2,2.4895726E-2,-5.0523438E-2,-4.119855E-2,2.3379548E-2,-5.595311E-2,2.3793204E-2],"categories":[],"categories_nodes":[],"categories_segments":[],"categories_sizes":[],"default_left":[0,0,0,0,0,0,0,0,0,0,0,0,0],"id":21,"left_children":[1,3,5,-1,7,9,11,-1,-1,-1,-1,-1,-1],"loss_changes":[5.007871E1,1.2414383E1,8.780167E0,0E0,1.112923E1,8.302603E0,9.788915E0,0E0,0E0,0E0,0E0,0E0,0E0],"parents":[2147483647,0,0,1,1,2,2,4,4,5,5,6,6],"right_children":[2,4,6,-1,8,10,12,-1,-1,-1,-1,-1,-1],"split_conditions":[-1.1881976E-1,-8.328753E-1,7.540815E-1,5.930757E-2,9.8160017E-1,1.1716709E0,-4.153019E-1,2.4895726E-2,-5.0523438E-2,-4.119855E-2,2.3379548E-2,-5.595311E-2,2.3793204E-2],"split_indices":[0,0,608,0,353,327,2,0,0,0,0,0,0],"split_type":[0,0,0,0,0,0,0,0,0,0,0,0,0],"sum_hessian":[1.3996758E2,6.219818E1,7.7769394E1,2.5664055E1,3.6534126E1,5.9471306E1,1.8298092E1,3.1737518E1,4.7966094E0,5.4641342E1,4.829961E0,4.163914E0,1.4134178E1],"tree_param":{"num_deleted":"0","num_feature":"823","num_nodes":"13","size_leaf_vector":"1"}},{"base_weights":[2.4870746E-3,9.8454213E-1,-3.368105E-1,-2.2461653E-2,1.0529878E0,5.968823E-2,-6.126221E-1,-1.1209576E-2,5.5080798E-2,1.5139389E-2,-5.1035404E-2,-5.9370147E-3,-4.695673E-2],"categories":[],"categories_nodes":[],"categories_segments":[],"categories_sizes":[],"default_left":[0,0,0,0,0,0,0,0,0,0,0,0,0],"id":22,"left_children":[1,3,5,-1,7,9,11,-1,-1,-1,-1,-1,-1],"loss_changes":[4.664471E1,4.000538E0,1.1414933E1,0E0,2.3962631E0,1.1759159E1,9.797916E0,0E0,0E0,0E0,0E0,0E0,0E0],"parents":[2147483647,0,0,1,1,2,2,4,4,5,5,6,6],"right_children":[2,4,6,-1,8,10,12,-1,-1,-1,-1,-1,-1],"split_conditions":[-5.651045E-1,-1.609576E0,-2.3148412E-1,-2.2461653E-2,-1.8944852E0,1.1335034E0,-1.2939489E-1,-1.1209576E-2,5.5080798E-2,1.5139389E-2,-5.1035404E-2,-5.9370147E-3,-4.695673E-2],"split_indices":[0,253,180,0,409,549,232,0,0,0,0,0,0],"split_type":[0,0,0,0,0,0,0,0,0,0,0,0,0],"sum_hessian":[1.3799121E2,3.494513E1,1.03046074E2,1.3387216E0,3.3606407E1,4.2595543E1,6.0450535E1,1.1001974E0,3.250621E1,3.5359142E1,7.236403E0,2.4601717E1,3.5848816E1],"tree_param":{"num_deleted":"0","num_feature":"823","num_nodes":"13","size_leaf_vector":"1"}},{"base_weights":[1.9866836E-3,6.3400465E-1,-4.9691486E-1,5.7980813E-2,2.6440758E-1,-8.0663884E-1,-1.3514954E-1,-5.9467442E-2,2.2635614E-2,-4.7764417E-2,2.3186158E-2,6.539072E-2,-1.686624E-2],"categories":[],"categories_nodes":[],"categories_segments":[],"categories_sizes":[],"default_left":[0,0,0,0,0,0,0,0,0,0,0,0,0],"id":23,"left_children":[1,3,5,-1,7,9,11,-1,-1,-1,-1,-1,-1],"loss_changes":[4.359825E1,1.1542656E1,8.549364E0,0E0,1.0696773E1,8.266636E0,1.1189713E1,0E0,0E0,0E0,0E0,0E0,0E0],"parents":[2147483647,0,0,1,1,2,2,4,4,5,5,6,6],"right_children":[2,4,6,-1,8,10,12,-1,-1,-1,-1,-1,-1],"split_conditions":[-1.1881976E-1,-8.328753E-1,2.0012711E-1,5.7980813E-2,-1.088973E0,1.1921169E0,-1.2511669E0,-5.9467442E-2,2.2635614E-2,-4.7764417E-2,2.3186158E-2,6.539072E-2,-1.686624E-2],"split_indices":[0,0,667,0,771,135,314,0,0,0,0,0,0],"split_type":[0,0,0,0,0,0,0,0,0,0,0,0,0],"sum_hessian":[1.3626984E2,5.9995544E1,7.62743E1,2.3887344E1,3.61082E1,4.0430313E1,3.5843987E1,3.5311112E0,3.257709E1,3.6417046E1,4.013268E0,3.7328923E0,3.211109E1],"tree_param":{"num_deleted":"0","num_feature":"823","num_nodes":"13","size_leaf_vector":"1"}},{"base_weights":[2.2924647E-3,9.4833416E-1,-3.1095687E-1,1.0169805E0,-2.5635907E-2,1.1057255E-1,-5.728799E-1,1.0217904E-2,5.710491E-2,2.3566682E-2,-3.9946295E-2,2.297161E-2,-3.6932424E-2],"categories":[],"categories_nodes":[],"categories_segments":[],"categories_sizes":[],"default_left":[0,0,0,0,0,0,0,0,0,0,0,0,0],"id":24,"left_children":[1,3,5,7,-1,9,11,-1,-1,-1,-1,-1,-1],"loss_changes":[4.0401543E1,3.922659E0,1.1371889E1,3.0939064E0,0E0,1.3530886E1,1.1177341E1,0E0,0E0,0E0,0E0,0E0,0E0],"parents":[2147483647,0,0,1,1,2,2,3,3,5,5,6,6],"right_children":[2,4,6,8,-1,10,12,-1,-1,-1,-1,-1,-1],"split_conditions":[-5.651045E-1,1.8727217E0,-2.189864E-1,-1.0949692E0,-2.5635907E-2,2.8010398E-1,-1.4212124E0,1.0217904E-2,5.710491E-2,2.3566682E-2,-3.9946295E-2,2.297161E-2,-3.6932424E-2],"split_indices":[0,748,439,84,0,473,257,0,0,0,0,0,0],"split_type":[0,0,0,0,0,0,0,0,0,0,0,0,0],"sum_hessian":[1.3433682E2,3.2912037E1,1.0142478E2,3.1725386E1,1.1866521E0,3.9091E1,6.2333782E1,4.584302E0,2.7141085E1,2.833387E1,1.075713E1,8.3794985E0,5.3954285E1],"tree_param":{"num_deleted":"0","num_feature":"823","num_nodes":"13","size_leaf_vector":"1"}},{"base_weights":[2.3796747E-3,6.0507995E-1,-4.6617407E-1,5.681002E-2,2.5251612E-1,-1.6208535E-1,-8.26202E-1,4.4284236E-2,-8.856979E-3,-2.2583978E-2,3.3408E-2,-5.1070876E-2,3.9114363E-2],"categories":[],"categories_nodes":[],"categories_segments":[],"categories_sizes":[],"default_left":[0,0,0,0,0,0,0,0,0,0,0,0,0],"id":25,"left_children":[1,3,5,-1,7,9,11,-1,-1,-1,-1,-1,-1],"loss_changes":[3.802959E1,1.0742338E1,8.161207E0,0E0,1.0137218E1,1.0476755E1,1.1616081E1,0E0,0E0,0E0,0E0,0E0,0E0],"parents":[2147483647,0,0,1,1,2,2,4,4,5,5,6,6],"right_children":[2,4,6,-1,8,10,12,-1,-1,-1,-1,-1,-1],"split_conditions":[-1.1881976E-1,-8.328753E-1,1.9607355E-1,5.681002E-2,-3.5471156E-1,6.521445E-1,1.3735907E0,4.4284236E-2,-8.856979E-3,-2.2583978E-2,3.3408E-2,-5.1070876E-2,3.9114363E-2],"split_indices":[0,0,439,0,571,129,348,0,0,0,0,0,0],"split_type":[0,0,0,0,0,0,0,0,0,0,0,0,0],"sum_hessian":[1.3266805E2,5.7899975E1,7.476807E1,2.221359E1,3.5686386E1,4.1319103E1,3.344896E1,1.3997451E1,2.1688934E1,3.09719E1,1.0347202E1,3.0154251E1,3.2947092E0],"tree_param":{"num_deleted":"0","num_feature":"823","num_nodes":"13","size_leaf_vector":"1"}},{"base_weights":[3.0221646E-3,1.0641166E0,-2.4628513E-1,-2.3768963E-3,5.6566674E-2,5.42723E-1,-3.8559586E-1,4.721583E-2,-2.3663022E-2,2.0074354E-2,-2.6350051E-2],"categories":[],"categories_nodes":[],"categories_segments":[],"categories_sizes":[],"default_left":[0,0,0,0,0,0,0,0,0,0,0],"id":26,"left_children":[1,3,5,-1,-1,7,9,-1,-1,-1,-1],"loss_changes":[3.5135777E1,1.9418983E0,1.203195E1,0E0,0E0,7.2022157E0,1.0451312E1,0E0,0E0,0E0,0E0],"parents":[2147483647,0,0,1,1,2,2,5,5,6,6],"right_children":[2,4,6,-1,-1,8,10,-1,-1,-1,-1],"split_conditions":[-7.4361837E-1,-1.5594126E0,-3.3375354E0,-2.3768963E-3,5.6566674E-2,5.059789E-1,-1.0758226E0,4.721583E-2,-2.3663022E-2,2.0074354E-2,-2.6350051E-2],"split_indices":[0,722,789,0,0,0,655,0,0,0,0],"split_type":[0,0,0,0,0,0,0,0,0,0,0],"sum_hessian":[1.308284E2,2.4268637E1,1.0655977E2,1.4004399E0,2.2868196E1,1.55566225E1,9.100314E1,1.1200053E1,4.35657E0,1.3579314E1,7.742383E1],"tree_param":{"num_deleted":"0","num_feature":"823","num_nodes":"11","size_leaf_vector":"1"}},{"base_weights":[3.5820005E-3,5.779735E-1,-4.36495E-1,5.5682857E-2,2.4526295E-1,-9.4386324E-2,-7.574981E-1,-2.9247E-2,2.8178522E-2,-5.9212517E-2,7.102092E-3,5.5797685E-2,-4.3253783E-2],"categories":[],"categories_nodes":[],"categories_segments":[],"categories_sizes":[],"default_left":[0,0,0,0,0,0,0,0,0,0,0,0,0],"id":27,"left_children":[1,3,5,-1,7,9,11,-1,-1,-1,-1,-1,-1],"loss_changes":[3.320218E1,9.881735E0,8.096201E0,0E0,9.95655E0,9.73984E0,8.6700535E0,0E0,0E0,0E0,0E0,0E0,0E0],"parents":[2147483647,0,0,1,1,2,2,4,4,5,5,6,6],"right_children":[2,4,6,-1,8,10,12,-1,-1,-1,-1,-1,-1],"split_conditions":[-1.1881976E-1,-8.328753E-1,-1.1088761E-1,5.5682857E-2,-3.804209E-1,-9.308577E-1,-1.451215E0,-2.9247E-2,2.8178522E-2,-5.9212517E-2,7.102092E-3,5.5797685E-2,-4.3253783E-2],"split_indices":[0,0,758,0,210,147,37,0,0,0,0,0,0],"split_type":[0,0,0,0,0,0,0,0,0,0,0,0,0],"sum_hessian":[1.293519E2,5.5976994E1,7.33749E1,2.054734E1,3.5429653E1,3.6146183E1,3.7228718E1,9.587107E0,2.5842548E1,5.728868E0,3.0417315E1,1.5126474E0,3.5716072E1],"tree_param":{"num_deleted":"0","num_feature":"823","num_nodes":"13","size_leaf_vector":"1"}},{"base_weights":[3.5970886E-3,1.038549E0,-2.2594355E-1,-4.18042E-3,5.5506825E-2,-4.3229493E-3,-7.09315E-1,4.4946868E-2,-8.985318E-3,1.3352226E-2,-5.122562E-2],"categories":[],"categories_nodes":[],"categories_segments":[],"categories_sizes":[],"default_left":[0,0,0,0,0,0,0,0,0,0,0],"id":28,"left_children":[1,3,5,-1,-1,7,9,-1,-1,-1,-1],"loss_changes":[3.0793741E1,1.9830055E0,1.1363532E1,0E0,0E0,1.1845843E1,1.0536673E1,0E0,0E0,0E0,0E0],"parents":[2147483647,0,0,1,1,2,2,5,5,6,6],"right_children":[2,4,6,-1,-1,8,10,-1,-1,-1,-1],"split_conditions":[-7.4361837E-1,-1.4878961E0,5.059789E-1,-4.18042E-3,5.5506825E-2,-3.376252E0,-1.0277543E0,4.4946868E-2,-8.985318E-3,1.3352226E-2,-5.122562E-2],"split_indices":[0,105,0,0,0,789,315,0,0,0,0],"split_type":[0,0,0,0,0,0,0,0,0,0,0],"sum_hessian":[1.2763545E2,2.2529602E1,1.0510585E2,1.3410048E0,2.1188599E1,7.275665E1,3.2349194E1,1.1159159E1,6.1597492E1,7.931927E0,2.4417267E1],"tree_param":{"num_deleted":"0","num_feature":"823","num_nodes":"11","size_leaf_vector":"1"}},{"base_weights":[3.896514E-3,1.0262592E0,-2.1625076E-1,-4.3504876E-3,5.501009E-2,-3.6268053E-3,-6.8805206E-1,4.2911645E-2,-8.554842E-3,1.2699555E-2,-5.0078023E-2],"categories":[],"categories_nodes":[],"categories_segments":[],"categories_sizes":[],"default_left":[0,0,0,0,0,0,0,0,0,0,0],"id":29,"left_children":[1,3,5,-1,-1,7,9,-1,-1,-1,-1],"loss_changes":[2.8828434E1,1.9638233E0,1.0571508E1,0E0,0E0,1.0779513E1,9.923887E0,0E0,0E0,0E0,0E0],"parents":[2147483647,0,0,1,1,2,2,5,5,6,6],"right_children":[2,4,6,-1,-1,8,10,-1,-1,-1,-1],"split_conditions":[-7.4361837E-1,-1.5594126E0,5.059789E-1,-4.3504876E-3,5.501009E-2,-3.376252E0,-1.0277543E0,4.2911645E-2,-8.554842E-3,1.2699555E-2,-5.0078023E-2],"split_indices":[0,722,0,0,0,789,315,0,0,0,0],"split_type":[0,0,0,0,0,0,0,0,0,0,0],"sum_hessian":[1.2610029E2,2.1693607E1,1.0440668E2,1.3401275E0,2.035348E1,7.2666275E1,3.1740402E1,1.1151588E1,6.151469E1,7.972911E0,2.3767492E1],"tree_param":{"num_deleted":"0","num_feature":"823","num_nodes":"11","size_leaf_vector":"1"}},{"base_weights":[4.174148E-3,5.369415E-1,-3.9633018E-1,7.364985E-1,-2.8291836E-1,8.111936E-2,-6.281411E-1,4.7289573E-2,-2.2738367E-2,-4.881155E-2,2.768903E-2,-2.9959977E-2,3.3067282E-2,6.995843E-3,-4.3285035E-2],"categories":[],"categories_nodes":[],"categories_segments":[],"categories_sizes":[],"default_left":[0,0,0,0,0,0,0,0,0,0,0,0,0,0,0],"id":30,"left_children":[1,3,5,7,9,11,13,-1,-1,-1,-1,-1,-1,-1,-1],"loss_changes":[2.701214E1,9.096147E0,8.050055E0,1.1392063E1,7.128509E0,1.0070205E1,9.019028E0,0E0,0E0,0E0,0E0,0E0,0E0,0E0,0E0],"parents":[2147483647,0,0,1,1,2,2,3,3,4,4,5,5,6,6],"right_children":[2,4,6,8,10,12,14,-1,-1,-1,-1,-1,-1,-1,-1],"split_conditions":[-1.1881976E-1,7.551326E-1,-1.0649676E0,9.898424E-1,4.393656E-1,-1.91693E-1,-7.4067897E-1,4.7289573E-2,-2.2738367E-2,-4.881155E-2,2.768903E-2,-2.9959977E-2,3.3067282E-2,6.995843E-3,-4.3285035E-2],"split_indices":[0,530,810,353,317,447,34,0,0,0,0,0,0,0,0],"split_type":[0,0,0,0,0,0,0,0,0,0,0,0,0,0,0],"sum_hessian":[1.2459696E2,5.332336E1,7.1273605E1,4.2966766E1,1.0356594E1,2.3507153E1,4.7766453E1,3.6721283E1,6.2454824E0,5.5723886E0,4.784205E0,1.0805242E1,1.270191E1,1.1381084E1,3.638537E1],"tree_param":{"num_deleted":"0","num_feature":"823","num_nodes":"15","size_leaf_vector":"1"}},{"base_weights":[3.7723307E-3,1.0074538E0,-2.0351577E-1,5.4374505E-2,-4.787172E-3,1.7823917E-1,-4.5658493E-1,-3.6718126E-2,2.2381812E-2,-8.524547E-3,-5.3887393E-2],"categories":[],"categories_nodes":[],"categories_segments":[],"categories_sizes":[],"default_left":[0,0,0,0,0,0,0,0,0,0,0],"id":31,"left_children":[1,3,5,-1,-1,7,9,-1,-1,-1,-1],"loss_changes":[2.6013647E1,1.9938507E0,1.0094769E1,0E0,0E0,1.066376E1,1.094265E1,0E0,0E0,0E0,0E0],"parents":[2147483647,0,0,1,1,2,2,5,5,6,6],"right_children":[2,4,6,-1,-1,8,10,-1,-1,-1,-1],"split_conditions":[-7.4361837E-1,1.7525923E0,-2.189864E-1,5.4374505E-2,-4.787172E-3,-1.5158464E0,5.038185E-1,-3.6718126E-2,2.2381812E-2,-8.524547E-3,-5.3887393E-2],"split_indices":[0,574,439,0,0,808,279,0,0,0,0],"split_type":[0,0,0,0,0,0,0,0,0,0,0],"sum_hessian":[1.2304933E2,2.0402245E1,1.0264709E2,1.903547E1,1.3667747E0,4.103758E1,6.1609512E1,8.959772E0,3.2077805E1,4.3054176E1,1.8555338E1],"tree_param":{"num_deleted":"0","num_feature":"823","num_nodes":"11","size_leaf_vector":"1"}},{"base_weights":[3.4650613E-3,9.957807E-1,-1.9503629E-1,-6.7584375E-3,5.3812023E-2,5.224558E-1,-3.191572E-1,-1.740946E-2,5.6412574E-2,-2.7992904E-2,6.339711E-3],"categories":[],"categories_nodes":[],"categories_segments":[],"categories_sizes":[],"default_left":[0,0,0,0,0,0,0,0,0,0,0],"id":32,"left_children":[1,3,5,-1,-1,7,9,-1,-1,-1,-1],"loss_changes":[2.439175E1,2.0237408E0,9.357645E0,0E0,0E0,8.620644E0,9.581834E0,0E0,0E0,0E0,0E0],"parents":[2147483647,0,0,1,1,2,2,5,5,6,6],"right_children":[2,4,6,-1,-1,8,10,-1,-1,-1,-1],"split_conditions":[-7.4361837E-1,-1.4878961E0,-1.0971773E0,-6.7584375E-3,5.3812023E-2,-3.036238E-1,4.2629245E-1,-1.740946E-2,5.6412574E-2,-2.7992904E-2,6.339711E-3],"split_indices":[0,105,391,0,0,435,721,0,0,0,0],"split_type":[0,0,0,0,0,0,0,0,0,0,0],"sum_hessian":[1.218451E2,1.9641253E1,1.0220385E2,1.2593755E0,1.8381878E1,1.4599704E1,8.760414E1,6.1648555E0,8.434848E0,5.6729275E1,3.087487E1],"tree_param":{"num_deleted":"0","num_feature":"823","num_nodes":"11","size_leaf_vector":"1"}},{"base_weights":[3.95153E-3,5.0652254E-1,-3.665752E-1,7.0262736E-1,-2.731787E-1,-6.8169403E-1,-1.6075466E-2,4.5684613E-2,-2.300325E-2,-6.033194E-2,1.6424987E-2,-4.172132E-2,2.494928E-2,1.9292163E-2,-3.557411E-2],"categories":[],"categories_nodes":[],"categories_segments":[],"categories_sizes":[],"default_left":[0,0,0,0,0,0,0,0,0,0,0,0,0,0,0],"id":33,"left_children":[1,3,5,7,9,11,13,-1,-1,-1,-1,-1,-1,-1,-1],"loss_changes":[2.2844774E1,8.151988E0,7.789222E0,1.0697149E1,6.67682E0,7.118078E0,9.905536E0,0E0,0E0,0E0,0E0,0E0,0E0,0E0,0E0],"parents":[2147483647,0,0,1,1,2,2,3,3,4,4,5,5,6,6],"right_children":[2,4,6,8,10,12,14,-1,-1,-1,-1,-1,-1,-1,-1],"split_conditions":[-1.1881976E-1,7.551326E-1,2.0012711E-1,9.898424E-1,-6.014018E-1,1.1921169E0,9.155251E-2,4.5684613E-2,-2.300325E-2,-6.033194E-2,1.6424987E-2,-4.172132E-2,2.494928E-2,1.9292163E-2,-3.557411E-2],"split_indices":[0,530,667,353,46,135,767,0,0,0,0,0,0,0,0],"split_type":[0,0,0,0,0,0,0,0,0,0,0,0,0,0,0],"sum_hessian":[1.20681786E2,5.1059383E1,6.96224E1,4.0877117E1,1.0182266E1,3.6164013E1,3.345839E1,3.477799E1,6.099131E0,3.596737E0,6.585529E0,3.2281372E1,3.8826418E0,2.1485651E1,1.1972736E1],"tree_param":{"num_deleted":"0","num_feature":"823","num_nodes":"15","size_leaf_vector":"1"}},{"base_weights":[3.3304668E-3,9.774177E-1,-1.8241976E-1,5.3205114E-2,-6.330296E-3,1.8062313E-1,-4.2556903E-1,-3.5082277E-2,2.1902537E-2,-7.4813566E-3,-5.1885474E-2],"categories":[],"categories_nodes":[],"categories_segments":[],"categories_sizes":[],"default_left":[0,0,0,0,0,0,0,0,0,0,0],"id":34,"left_children":[1,3,5,-1,-1,7,9,-1,-1,-1,-1],"loss_changes":[2.1927595E1,1.9921169E0,9.062733E0,0E0,0E0,9.74039E0,1.0192882E1,0E0,0E0,0E0,0E0],"parents":[2147483647,0,0,1,1,2,2,5,5,6,6],"right_children":[2,4,6,-1,-1,8,10,-1,-1,-1,-1],"split_conditions":[-7.4361837E-1,1.7525923E0,-2.189864E-1,5.3205114E-2,-6.330296E-3,-1.5158464E0,5.038185E-1,-3.5082277E-2,2.1902537E-2,-7.4813566E-3,-5.1885474E-2],"split_indices":[0,574,439,0,0,808,279,0,0,0,0],"split_type":[0,0,0,0,0,0,0,0,0,0,0],"sum_hessian":[1.1920375E2,1.8408146E1,1.007956E2,1.7101543E1,1.3066024E0,4.053319E1,6.0262413E1,8.76562E0,3.176757E1,4.239565E1,1.7866762E1],"tree_param":{"num_deleted":"0","num_feature":"823","num_nodes":"11","size_leaf_vector":"1"}},{"base_weights":[3.0354345E-3,5.2378096E-2,-1.6216388E-1,2.9479628E-2,-6.199765E-1,4.048283E-2,-6.5174648E-3,1.4443688E-2,-4.714371E-2],"categories":[],"categories_nodes":[],"categories_segments":[],"categories_sizes":[],"default_left":[0,0,0,0,0,0,0,0,0],"id":35,"left_children":[1,-1,3,5,7,-1,-1,-1,-1],"loss_changes":[2.0717934E1,0E0,9.115311E0,9.338477E0,9.264518E0,0E0,0E0,0E0,0E0],"parents":[2147483647,0,0,2,2,3,3,4,4],"right_children":[2,-1,4,6,8,-1,-1,-1,-1],"split_conditions":[-8.328753E-1,5.2378096E-2,5.059789E-1,-3.069161E0,-1.0277543E0,4.048283E-2,-6.5174648E-3,1.4443688E-2,-4.714371E-2],"split_indices":[0,0,0,789,315,0,0,0,0],"split_type":[0,0,0,0,0,0,0,0,0],"sum_hessian":[1.1808118E2,1.5395693E1,1.02685486E2,7.3044266E1,2.964122E1,1.1728392E1,6.1315872E1,7.7979474E0,2.1843273E1],"tree_param":{"num_deleted":"0","num_feature":"823","num_nodes":"9","size_leaf_vector":"1"}},{"base_weights":[3.389635E-3,5.1967204E-2,-1.5510419E-1,1.21914245E-1,-4.540074E-1,-1.31509695E-2,2.6051272E-2,1.1999578E-2,-3.600039E-2],"categories":[],"categories_nodes":[],"categories_segments":[],"categories_sizes":[],"default_left":[0,0,0,0,0,0,0,0,0],"id":36,"left_children":[1,-1,3,5,7,-1,-1,-1,-1],"loss_changes":[1.9508558E1,0E0,8.589556E0,8.476236E0,9.363752E0,0E0,0E0,0E0,0E0],"parents":[2147483647,0,0,2,2,3,3,4,4],"right_children":[2,-1,4,6,8,-1,-1,-1,-1],"split_conditions":[-8.328753E-1,5.1967204E-2,7.269946E-2,8.136677E-2,-5.53969E-1,-1.31509695E-2,2.6051272E-2,1.1999578E-2,-3.600039E-2],"split_indices":[0,0,672,11,391,0,0,0,0],"split_type":[0,0,0,0,0,0,0,0,0],"sum_hessian":[1.1683342E2,1.4765416E1,1.0206801E2,5.3280586E1,4.878742E1,2.7295595E1,2.5984991E1,1.3545302E1,3.524212E1],"tree_param":{"num_deleted":"0","num_feature":"823","num_nodes":"9","size_leaf_vector":"1"}},{"base_weights":[3.6532632E-3,4.6974167E-1,-3.3185804E-1,6.653707E-1,-2.8223673E-1,1.2662195E-1,-5.629968E-1,4.405853E-2,-2.4197048E-2,-4.8127346E-2,2.6718765E-2,-2.3614412E-2,3.760272E-2,-3.9645124E-2,1.0174103E-2],"categories":[],"categories_nodes":[],"categories_segments":[],"categories_sizes":[],"default_left":[0,0,0,0,0,0,0,0,0,0,0,0,0,0,0],"id":37,"left_children":[1,3,5,7,9,11,13,-1,-1,-1,-1,-1,-1,-1,-1],"loss_changes":[1.8432465E1,7.4449673E0,7.3348927E0,1.0209766E1,6.5623617E0,9.266268E0,8.223787E0,0E0,0E0,0E0,0E0,0E0,0E0,0E0,0E0],"parents":[2147483647,0,0,1,1,2,2,3,3,4,4,5,5,6,6],"right_children":[2,4,6,8,10,12,14,-1,-1,-1,-1,-1,-1,-1,-1],"split_conditions":[-1.1881976E-1,7.551326E-1,-1.0649676E0,9.898424E-1,4.393656E-1,5.8853347E-2,8.5912216E-1,4.405853E-2,-2.4197048E-2,-4.8127346E-2,2.6718765E-2,-2.3614412E-2,3.760272E-2,-3.9645124E-2,1.0174103E-2],"split_indices":[0,530,810,353,317,750,160,0,0,0,0,0,0,0,0],"split_type":[0,0,0,0,0,0,0,0,0,0,0,0,0,0,0],"sum_hessian":[1.15874405E2,4.833203E1,6.754237E1,3.844551E1,9.88652E0,2.2789661E1,4.4752716E1,3.256438E1,5.8811297E0,5.2958775E0,4.5906425E0,1.1766753E1,1.1022908E1,3.4399956E1,1.0352757E1],"tree_param":{"num_deleted":"0","num_feature":"823","num_nodes":"15","size_leaf_vector":"1"}},{"base_weights":[3.3493703E-3,5.1375497E-2,-1.4603502E-1,8.78808E-2,-4.8755407E-1,1.4617405E-2,-2.9708752E-2,5.5334475E-2,-3.1489503E-2],"categories":[],"categories_nodes":[],"categories_segments":[],"categories_sizes":[],"default_left":[0,0,0,0,0,0,0,0,0],"id":38,"left_children":[1,-1,3,5,7,-1,-1,-1,-1],"loss_changes":[1.7828411E1,0E0,8.168646E0,8.71074E0,1.010764E1,0E0,0E0,0E0,0E0],"parents":[2147483647,0,0,2,2,3,3,4,4],"right_children":[2,-1,4,6,8,-1,-1,-1,-1],"split_conditions":[-8.328753E-1,5.1375497E-2,1.438096E-1,6.740185E-1,-1.451215E0,1.4617405E-2,-2.9708752E-2,5.5334475E-2,-3.1489503E-2],"split_indices":[0,0,93,99,37,0,0,0,0],"split_type":[0,0,0,0,0,0,0,0,0],"sum_hessian":[1.1454967E2,1.3833136E1,1.0071653E2,6.0215767E1,4.0500763E1,4.676722E1,1.3448546E1,2.762031E0,3.773873E1],"tree_param":{"num_deleted":"0","num_feature":"823","num_nodes":"9","size_leaf_vector":"1"}},{"base_weights":[3.7870463E-3,5.0991215E-2,-1.3924493E-1,3.9598547E-2,-5.788649E-1,1.7008549E-2,-1.7210975E-2,5.3150352E-2,-3.7273746E-2],"categories":[],"categories_nodes":[],"categories_segments":[],"categories_sizes":[],"default_left":[0,0,0,0,0,0,0,0,0],"id":39,"left_children":[1,-1,3,5,7,-1,-1,-1,-1],"loss_changes":[1.6796879E1,0E0,7.9906855E0,8.535509E0,8.826472E0,0E0,0E0,0E0,0E0],"parents":[2147483647,0,0,2,2,3,3,4,4],"right_children":[2,-1,4,6,8,-1,-1,-1,-1],"split_conditions":[-8.328753E-1,5.0991215E-2,5.059789E-1,1.2046325E-1,-1.3406698E0,1.7008549E-2,-1.7210975E-2,5.3150352E-2,-3.7273746E-2],"split_indices":[0,0,0,99,677,0,0,0,0],"split_type":[0,0,0,0,0,0,0,0,0],"sum_hessian":[1.1360369E2,1.3262511E1,1.0034118E2,7.197193E1,2.8369251E1,4.0426884E1,3.1545046E1,2.1179116E0,2.6251339E1],"tree_param":{"num_deleted":"0","num_feature":"823","num_nodes":"9","size_leaf_vector":"1"}},{"base_weights":[4.233975E-3,5.0615784E-2,-1.3297519E-1,-1.9571757E-2,-8.1498694E-1,1.9430988E-2,-1.39377E-2,-5.083347E-2,2.5692461E-2],"categories":[],"categories_nodes":[],"categories_segments":[],"categories_sizes":[],"default_left":[0,0,0,0,0,0,0,0,0],"id":40,"left_children":[1,-1,3,5,7,-1,-1,-1,-1],"loss_changes":[1.583418E1,0E0,7.77934E0,9.359574E0,4.366931E0,0E0,0E0,0E0,0E0],"parents":[2147483647,0,0,2,2,3,3,4,4],"right_children":[2,-1,4,6,8,-1,-1,-1,-1],"split_conditions":[-8.328753E-1,5.0615784E-2,1.2007952E0,-2.189864E-1,1.4537491E0,1.9430988E-2,-1.39377E-2,-5.083347E-2,2.5692461E-2],"split_indices":[0,0,530,439,135,0,0,0,0],"split_type":[0,0,0,0,0,0,0,0,0],"sum_hessian":[1.12503395E2,1.2714142E1,9.978925E1,8.64442E1,1.3345057E1,3.3377644E1,5.306655E1,1.1790487E1,1.5545688E0],"tree_param":{"num_deleted":"0","num_feature":"823","num_nodes":"9","size_leaf_vector":"1"}},{"base_weights":[4.3805153E-3,5.0248176E-2,-1.2705551E-1,6.304218E-1,-2.2502962E-1,4.6279658E-2,-2.852735E-2,-2.1046184E-3,-3.9647035E-2],"categories":[],"categories_nodes":[],"categories_segments":[],"categories_sizes":[],"default_left":[0,0,0,0,0,0,0,0,0],"id":41,"left_children":[1,-1,3,5,7,-1,-1,-1,-1],"loss_changes":[1.4937704E1,0E0,7.594752E0,4.698577E0,9.281665E0,0E0,0E0,0E0,0E0],"parents":[2147483647,0,0,2,2,3,3,4,4],"right_children":[2,-1,4,6,8,-1,-1,-1,-1],"split_conditions":[-8.328753E-1,5.0248176E-2,-1.3118097E0,7.808873E-1,6.188833E-1,4.6279658E-2,-2.852735E-2,-2.1046184E-3,-3.9647035E-2],"split_indices":[0,0,83,112,697,0,0,0,0],"split_type":[0,0,0,0,0,0,0,0,0],"sum_hessian":[1.1161288E2,1.2187451E1,9.942543E1,1.07646885E1,8.8660736E1,8.824996E0,1.9396924E0,6.787179E1,2.078895E1],"tree_param":{"num_deleted":"0","num_feature":"823","num_nodes":"9","size_leaf_vector":"1"}},{"base_weights":[4.4977204E-3,4.3078458E-1,-2.936911E-1,7.0904326E-1,-7.736332E-2,-9.3031466E-1,-1.17060974E-1,4.5591947E-2,-1.9623963E-2,-3.8585335E-2,2.7613321E-2,-5.578505E-2,1.4925003E-2,3.567193E-2,-1.8883381E-2],"categories":[],"categories_nodes":[],"categories_segments":[],"categories_sizes":[],"default_left":[0,0,0,0,0,0,0,0,0,0,0,0,0,0,0],"id":42,"left_children":[1,3,5,7,9,11,13,-1,-1,-1,-1,-1,-1,-1,-1],"loss_changes":[1.4330901E1,6.6154995E0,7.3515387E0,7.077198E0,7.9977875E0,3.582858E0,1.1757864E1,0E0,0E0,0E0,0E0,0E0,0E0,0E0,0E0],"parents":[2147483647,0,0,1,1,2,2,3,3,4,4,5,5,6,6],"right_children":[2,4,6,8,10,12,14,-1,-1,-1,-1,-1,-1,-1,-1],"split_conditions":[-1.1881976E-1,2.85786E-1,-6.1293805E-1,1.0790399E0,-9.675276E-2,1.5397874E0,-6.9711417E-1,4.5591947E-2,-1.9623963E-2,-3.8585335E-2,2.7613321E-2,-5.578505E-2,1.4925003E-2,3.567193E-2,-1.8883381E-2],"split_indices":[0,530,622,353,628,145,391,0,0,0,0,0,0,0,0],"split_type":[0,0,0,0,0,0,0,0,0,0,0,0,0,0,0],"sum_hessian":[1.10745255E2,4.5398903E1,6.534635E1,2.9079693E1,1.6319212E1,1.3265786E1,5.2080563E1,2.4703804E1,4.3758883E0,7.653466E0,8.665745E0,1.1606771E1,1.6590148E0,1.2024225E1,4.005634E1],"tree_param":{"num_deleted":"0","num_feature":"823","num_nodes":"15","size_leaf_vector":"1"}},{"base_weights":[4.2241104E-3,4.9696833E-2,-1.19466186E-1,-2.8620836E-1,3.1563258E-1,-2.3736075E-2,1.977705E-2,-7.3865787E-3,4.4362996E-2],"categories":[],"categories_nodes":[],"categories_segments":[],"categories_sizes":[],"default_left":[0,0,0,0,0,0,0,0,0],"id":43,"left_children":[1,-1,3,5,7,-1,-1,-1,-1],"loss_changes":[1.3653419E1,0E0,7.285163E0,9.469412E0,7.5346036E0,0E0,0E0,0E0,0E0],"parents":[2147483647,0,0,2,2,3,3,4,4],"right_children":[2,-1,4,6,8,-1,-1,-1,-1],"split_conditions":[-8.328753E-1,4.9696833E-2,7.023524E-1,7.911831E-1,-6.443129E-2,-2.3736075E-2,1.977705E-2,-7.3865787E-3,4.4362996E-2],"split_indices":[0,0,721,131,280,0,0,0,0],"split_type":[0,0,0,0,0,0,0,0,0],"sum_hessian":[1.0956132E2,1.1389791E1,9.8171524E1,7.1220146E1,2.695138E1,5.6030586E1,1.5189561E1,1.5294851E1,1.1656528E1],"tree_param":{"num_deleted":"0","num_feature":"823","num_nodes":"9","size_leaf_vector":"1"}},{"base_weights":[4.8499666E-3,4.9344316E-2,-1.136792E-1,5.18711E-1,-2.2471228E-1,4.7297716E-2,-2.8018748E-2,3.0339165E-3,-2.6238082E-2],"categories":[],"categories_nodes":[],"categories_segments":[],"categories_sizes":[],"default_left":[0,0,0,0,0,0,0,0,0],"id":44,"left_children":[1,-1,3,5,7,-1,-1,-1,-1],"loss_changes":[1.2880084E1,0E0,7.052039E0,7.4706583E0,7.286414E0,0E0,0E0,0E0,0E0],"parents":[2147483647,0,0,2,2,3,3,4,4],"right_children":[2,-1,4,6,8,-1,-1,-1,-1],"split_conditions":[-8.328753E-1,4.9344316E-2,-1.0971773E0,6.3983804E-1,7.269946E-2,4.7297716E-2,-2.8018748E-2,3.0339165E-3,-2.6238082E-2],"split_indices":[0,0,391,121,672,0,0,0,0],"split_type":[0,0,0,0,0,0,0,0,0],"sum_hessian":[1.0868987E2,1.0916718E1,9.7773155E1,1.4054412E1,8.371874E1,1.0156511E1,3.8979006E0,4.3316357E1,4.040239E1],"tree_param":{"num_deleted":"0","num_feature":"823","num_nodes":"9","size_leaf_vector":"1"}},{"base_weights":[5.1117423E-3,4.0764403E-1,-2.7197948E-1,6.78796E-1,-7.550627E-2,-9.053487E-1,-9.9038996E-2,-3.849895E-2,4.11697E-2,-3.6834966E-2,2.6704082E-2,-5.4657727E-2,1.4916183E-2,3.3298258E-2,-1.7274376E-2],"categories":[],"categories_nodes":[],"categories_segments":[],"categories_sizes":[],"default_left":[0,0,0,0,0,0,0,0,0,0,0,0,0,0,0],"id":45,"left_children":[1,3,5,7,9,11,13,-1,-1,-1,-1,-1,-1,-1,-1],"loss_changes":[1.2256139E1,5.919797E0,7.0403414E0,6.665805E0,7.2465034E0,3.4544325E0,1.008187E1,0E0,0E0,0E0,0E0,0E0,0E0,0E0,0E0],"parents":[2147483647,0,0,1,1,2,2,3,3,4,4,5,5,6,6],"right_children":[2,4,6,8,10,12,14,-1,-1,-1,-1,-1,-1,-1,-1],"split_conditions":[-1.1881976E-1,2.85786E-1,-6.1293805E-1,-1.5034922E0,-9.675276E-2,1.5397874E0,-6.9711417E-1,-3.849895E-2,4.11697E-2,-3.6834966E-2,2.6704082E-2,-5.4657727E-2,1.4916183E-2,3.3298258E-2,-1.7274376E-2],"split_indices":[0,530,622,403,628,145,391,0,0,0,0,0,0,0,0],"split_type":[0,0,0,0,0,0,0,0,0,0,0,0,0,0,0],"sum_hessian":[1.07888885E2,4.379559E1,6.40933E1,2.7792845E1,1.6002743E1,1.2838639E1,5.125466E1,2.1297002E0,2.5663145E1,7.576417E0,8.426326E0,1.118525E1,1.6533883E0,1.207384E1,3.918082E1],"tree_param":{"num_deleted":"0","num_feature":"823","num_nodes":"15","size_leaf_vector":"1"}},{"base_weights":[4.5923754E-3,4.8805375E-2,-1.0703246E-1,1.1005466E-1,-4.2931122E-1,6.516882E-2,4.370087E-5,5.3775843E-2,-2.845849E-2],"categories":[],"categories_nodes":[],"categories_segments":[],"categories_sizes":[],"default_left":[0,0,0,0,0,0,0,0,0],"id":46,"left_children":[1,-1,3,5,7,-1,-1,-1,-1],"loss_changes":[1.1792849E1,0E0,6.8738422E0,7.6986475E0,8.920515E0,0E0,0E0,0E0,0E0],"parents":[2147483647,0,0,2,2,3,3,4,4],"right_children":[2,-1,4,6,8,-1,-1,-1,-1],"split_conditions":[-8.328753E-1,4.8805375E-2,1.438096E-1,-1.5606607E0,-1.451215E0,6.516882E-2,4.370087E-5,5.3775843E-2,-2.845849E-2],"split_indices":[0,0,93,66,37,0,0,0,0],"split_type":[0,0,0,0,0,0,0,0,0],"sum_hessian":[1.0678137E2,1.020641E1,9.657496E1,5.8098377E1,3.847658E1,3.9531765E0,5.41452E1,2.7030206E0,3.5773563E1],"tree_param":{"num_deleted":"0","num_feature":"823","num_nodes":"9","size_leaf_vector":"1"}},{"base_weights":[5.7369876E-3,8.7264484E-1,-1.1353035E-1,4.958436E-2,-1.3843161E-2,5.077396E-1,-2.2876716E-1,-1.4092959E-2,4.6074968E-2,-3.5509348E-3,-4.5020353E-2],"categories":[],"categories_nodes":[],"categories_segments":[],"categories_sizes":[],"default_left":[0,0,0,0,0,0,0,0,0,0,0],"id":47,"left_children":[1,3,5,-1,-1,7,9,-1,-1,-1,-1],"loss_changes":[1.1169494E1,2.0622625E0,6.917957E0,0E0,0E0,5.2176914E0,8.500074E0,0E0,0E0,0E0,0E0],"parents":[2147483647,0,0,1,1,2,2,5,5,6,6],"right_children":[2,4,6,-1,-1,8,10,-1,-1,-1,-1],"split_conditions":[-7.4361837E-1,1.7525923E0,-3.3375354E0,4.958436E-2,-1.3843161E-2,-4.6410415E-1,7.45207E-1,-1.4092959E-2,4.6074968E-2,-3.5509348E-3,-4.5020353E-2],"split_indices":[0,574,789,0,0,104,360,0,0,0,0],"split_type":[0,0,0,0,0,0,0,0,0,0,0],"sum_hessian":[1.06070465E2,1.2064149E1,9.400632E1,1.1056445E1,1.0077041E0,1.4175681E1,7.9830635E1,4.9837403E0,9.19194E0,6.554239E1,1.4288241E1],"tree_param":{"num_deleted":"0","num_feature":"823","num_nodes":"11","size_leaf_vector":"1"}},{"base_weights":[5.7211174E-3,4.813986E-2,-9.703278E-2,-8.514321E-1,-6.1940886E-3,-5.98675E-2,4.327383E-2,-3.1914797E-2,6.6706487E-3],"categories":[],"categories_nodes":[],"categories_segments":[],"categories_sizes":[],"default_left":[0,0,0,0,0,0,0,0,0],"id":48,"left_children":[1,-1,3,5,7,-1,-1,-1,-1],"loss_changes":[1.0544662E1,0E0,6.633642E0,7.2154655E0,7.804352E0,0E0,0E0,0E0,0E0],"parents":[2147483647,0,0,2,2,3,3,4,4],"right_children":[2,-1,4,6,8,-1,-1,-1,-1],"split_conditions":[-8.328753E-1,4.813986E-2,-1.0967573E0,1.0834802E0,-8.809968E-1,-5.98675E-2,4.327383E-2,-3.1914797E-2,6.6706487E-3],"split_indices":[0,0,57,251,663,0,0,0,0],"split_type":[0,0,0,0,0,0,0,0,0],"sum_hessian":[1.0527303E2,9.395065E0,9.587797E1,9.404257E0,8.647371E1,8.079113E0,1.3251443E0,1.4997432E1,7.147628E1],"tree_param":{"num_deleted":"0","num_feature":"823","num_nodes":"9","size_leaf_vector":"1"}},{"base_weights":[5.529201E-3,3.8159296E-1,-2.475145E-1,1.0409405E0,1.6739476E-1,-1.5922148E-2,-7.173922E-1,-9.840491E-3,5.9968185E-2,2.2018744E-2,-2.9843751E-2,1.2438101E-2,-3.3806335E-2,4.6260234E-2,-4.744753E-2],"categories":[],"categories_nodes":[],"categories_segments":[],"categories_sizes":[],"default_left":[0,0,0,0,0,0,0,0,0,0,0,0,0,0,0],"id":49,"left_children":[1,3,5,7,9,11,13,-1,-1,-1,-1,-1,-1,-1,-1],"loss_changes":[1.0141637E1,5.879068E0,6.9226294E0,2.2593155E0,7.2609262E0,7.8055553E0,8.871084E0,0E0,0E0,0E0,0E0,0E0,0E0,0E0,0E0],"parents":[2147483647,0,0,1,1,2,2,3,3,4,4,5,5,6,6],"right_children":[2,4,6,8,10,12,14,-1,-1,-1,-1,-1,-1,-1,-1],"split_conditions":[-1.1881976E-1,-1.9632851E0,3.2455817E-1,-1.2712609E0,6.3907844E-1,6.277864E-1,-1.4442585E0,-9.840491E-3,5.9968185E-2,2.2018744E-2,-2.9843751E-2,1.2438101E-2,-3.3806335E-2,4.6260234E-2,-4.744753E-2],"split_indices":[0,799,714,757,452,89,137,0,0,0,0,0,0,0,0],"split_type":[0,0,0,0,0,0,0,0,0,0,0,0,0,0,0],"sum_hessian":[1.0458141E2,4.186108E1,6.2720333E1,9.318146E0,3.2542934E1,4.270558E1,2.0014753E1,1.0298321E0,8.288314E0,2.4290651E1,8.252283E0,3.0928976E1,1.1776605E1,2.1027808E0,1.7911972E1],"tree_param":{"num_deleted":"0","num_feature":"823","num_nodes":"15","size_leaf_vector":"1"}},{"base_weights":[5.4276525E-3,4.768392E-2,-9.227298E-2,1.3509808E-2,-7.358023E-1,5.081768E-2,-4.0444653E-3,-5.5529503E-3,-6.2062442E-2],"categories":[],"categories_nodes":[],"categories_segments":[],"categories_sizes":[],"default_left":[0,0,0,0,0,0,0,0,0],"id":50,"left_children":[1,-1,3,5,7,-1,-1,-1,-1],"loss_changes":[9.782833E0,0E0,6.53026E0,7.9625697E0,4.13771E0,0E0,0E0,0E0,0E0],"parents":[2147483647,0,0,2,2,3,3,4,4],"right_children":[2,-1,4,6,8,-1,-1,-1,-1],"split_conditions":[-8.328753E-1,4.768392E-2,1.2007952E0,-1.2907625E0,-7.387251E-1,5.081768E-2,-4.0444653E-3,-5.5529503E-3,-6.2062442E-2],"split_indices":[0,0,530,376,625,0,0,0,0],"split_type":[0,0,0,0,0,0,0,0,0],"sum_hessian":[1.03645325E2,8.86297E0,9.478235E1,8.2242424E1,1.2539931E1,6.2353168E0,7.60071E1,6.15363E0,6.3863015E0],"tree_param":{"num_deleted":"0","num_feature":"823","num_nodes":"9","size_leaf_vector":"1"}},{"base_weights":[5.47771E-3,4.7348883E-2,-8.818147E-2,-2.3541383E-1,3.5449684E-1,-1.8205948E-2,3.138677E-2,-3.8209394E-2,2.9642979E-2],"categories":[],"categories_nodes":[],"categories_segments":[],"categories_sizes":[],"default_left":[0,0,0,0,0,0,0,0,0],"id":51,"left_children":[1,-1,3,5,7,-1,-1,-1,-1],"loss_changes":[9.255087E0,0E0,6.308719E0,8.257843E0,6.916135E0,0E0,0E0,0E0,0E0],"parents":[2147483647,0,0,2,2,3,3,4,4],"right_children":[2,-1,4,6,8,-1,-1,-1,-1],"split_conditions":[-8.328753E-1,4.7348883E-2,7.540815E-1,1.1716709E0,-8.0443436E-1,-1.8205948E-2,3.138677E-2,-3.8209394E-2,2.9642979E-2],"split_indices":[0,0,608,327,265,0,0,0,0],"split_type":[0,0,0,0,0,0,0,0,0],"sum_hessian":[1.0300963E2,8.495775E0,9.4513855E1,7.127605E1,2.3237812E1,6.253024E1,8.745803E0,3.6941988E0,1.9543613E1],"tree_param":{"num_deleted":"0","num_feature":"823","num_nodes":"9","size_leaf_vector":"1"}},{"base_weights":[5.772763E-3,4.701492E-2,-8.40483E-2,-8.27213E-1,3.3505636E-3,-5.847164E-2,4.133014E-2,3.3139646E-2,-5.867786E-3],"categories":[],"categories_nodes":[],"categories_segments":[],"categories_sizes":[],"default_left":[0,0,0,0,0,0,0,0,0],"id":52,"left_children":[1,-1,3,5,7,-1,-1,-1,-1],"loss_changes":[8.754144E0,0E0,6.186474E0,6.6389375E0,6.937792E0,0E0,0E0,0E0,0E0],"parents":[2147483647,0,0,2,2,3,3,4,4],"right_children":[2,-1,4,6,8,-1,-1,-1,-1],"split_conditions":[-8.328753E-1,4.701492E-2,-1.0967573E0,1.0834802E0,-1.0971773E0,-5.847164E-2,4.133014E-2,3.3139646E-2,-5.867786E-3],"split_indices":[0,0,57,251,391,0,0,0,0],"split_type":[0,0,0,0,0,0,0,0,0],"sum_hessian":[1.0234887E2,8.1443205E0,9.420455E1,9.022256E0,8.51823E1,7.718065E0,1.3041908E0,1.2484738E1,7.2697556E1],"tree_param":{"num_deleted":"0","num_feature":"823","num_nodes":"9","size_leaf_vector":"1"}},{"base_weights":[6.08242E-3,3.583762E-1,-2.2706982E-1,1.1683146E-1,9.3164897E-1,-9.2888594E-1,-7.265021E-2,-4.125539E-2,1.7430909E-2,-1.2544048E-2,5.9700575E-2,2.2823209E-2,-5.551801E-2,-4.122814E-2,7.2159567E-3],"categories":[],"categories_nodes":[],"categories_segments":[],"categories_sizes":[],"default_left":[0,0,0,0,0,0,0,0,0,0,0,0,0,0,0],"id":53,"left_children":[1,3,5,7,9,11,13,-1,-1,-1,-1,-1,-1,-1,-1],"loss_changes":[8.5189E0,5.6096277E0,6.6979227E0,6.8808494E0,4.0532207E0,3.3159342E0,8.643627E0,0E0,0E0,0E0,0E0,0E0,0E0,0E0,0E0],"parents":[2147483647,0,0,1,1,2,2,3,3,4,4,5,5,6,6],"right_children":[2,4,6,8,10,12,14,-1,-1,-1,-1,-1,-1,-1,-1],"split_conditions":[-1.1881976E-1,5.423603E-1,-7.975545E-1,-1.2482814E0,-1.4606425E0,-1.4411805E0,-6.1293805E-1,-4.125539E-2,1.7430909E-2,-1.2544048E-2,5.9700575E-2,2.2823209E-2,-5.551801E-2,-4.122814E-2,7.2159567E-3],"split_indices":[0,535,551,542,424,741,622,0,0,0,0,0,0,0,0],"split_type":[0,0,0,0,0,0,0,0,0,0,0,0,0,0,0],"sum_hessian":[1.0172363E2,4.0297256E1,6.1426376E1,2.919847E1,1.1098788E1,1.0173567E1,5.125281E1,5.2605944E0,2.3937874E1,2.0232556E0,9.075533E0,1.0028243E0,9.170742E0,1.0850337E1,4.0402473E1],"tree_param":{"num_deleted":"0","num_feature":"823","num_nodes":"15","size_leaf_vector":"1"}},{"base_weights":[5.347863E-3,4.650439E-2,-7.938276E-2,2.2558175E-1,-2.889647E-1,-3.1467237E-2,2.3116047E-2,-1.0294202E-3,-4.595472E-2],"categories":[],"categories_nodes":[],"categories_segments":[],"categories_sizes":[],"default_left":[0,0,0,0,0,0,0,0,0],"id":54,"left_children":[1,-1,3,5,7,-1,-1,-1,-1],"loss_changes":[8.059391E0,0E0,6.0913258E0,8.177185E0,9.505284E0,0E0,0E0,0E0,0E0],"parents":[2147483647,0,0,2,2,3,3,4,4],"right_children":[2,-1,4,6,8,-1,-1,-1,-1],"split_conditions":[-8.328753E-1,4.650439E-2,-2.189864E-1,-1.5158464E0,5.038185E-1,-3.1467237E-2,2.3116047E-2,-1.0294202E-3,-4.595472E-2],"split_indices":[0,0,439,808,279,0,0,0,0],"split_type":[0,0,0,0,0,0,0,0,0],"sum_hessian":[1.0091667E2,7.6330857E0,9.3283585E1,3.7964607E1,5.5318977E1,7.873386E0,3.0091223E1,3.951988E1,1.5799098E1],"tree_param":{"num_deleted":"0","num_feature":"823","num_nodes":"9","size_leaf_vector":"1"}},{"base_weights":[5.012314E-3,1.6698107E-1,-4.675256E-1,2.7637848E-1,-6.131385E-1,4.2708722E-1,-8.300024E-1,2.3197949E-2,-1.4688082E-2,-4.586376E-2,2.6490215E-2,5.494163E-2,-4.7576156E-2,-5.0260313E-2,4.623147E-2],"categories":[],"categories_nodes":[],"categories_segments":[],"categories_sizes":[],"default_left":[0,0,0,0,0,0,0,0,0,0,0,0,0,0,0],"id":55,"left_children":[1,3,5,7,9,11,13,-1,-1,-1,-1,-1,-1,-1,-1],"loss_changes":[7.8315177E0,6.6710043E0,8.825487E0,7.3553824E0,3.8508067E0,8.632583E0,6.748909E0,0E0,0E0,0E0,0E0,0E0,0E0,0E0,0E0],"parents":[2147483647,0,0,1,1,2,2,3,3,4,4,5,5,6,6],"right_children":[2,4,6,8,10,12,14,-1,-1,-1,-1,-1,-1,-1,-1],"split_conditions":[5.059789E-1,1.2007952E0,-1.0277543E0,5.0161576E-1,9.538354E-1,7.632263E-1,1.3330431E0,2.3197949E-2,-1.4688082E-2,-4.586376E-2,2.6490215E-2,5.494163E-2,-4.7576156E-2,-5.0260313E-2,4.623147E-2],"split_indices":[0,530,315,109,622,56,616,0,0,0,0,0,0,0,0],"split_type":[0,0,0,0,0,0,0,0,0,0,0,0,0,0,0],"sum_hessian":[1.0030411E2,7.518132E1,2.5122786E1,6.650144E1,8.679878E0,7.192659E0,1.7930126E1,5.017855E1,1.6322893E1,7.0115514E0,1.668327E0,4.9726257E0,2.2200334E0,1.6690641E1,1.2394842E0],"tree_param":{"num_deleted":"0","num_feature":"823","num_nodes":"15","size_leaf_vector":"1"}},{"base_weights":[4.5201615E-3,4.609947E-2,-7.65347E-2,6.879315E-2,-5.1534617E-1,-3.6078453E-2,1.1152177E-2,5.3237736E-2,-3.4280844E-2],"categories":[],"categories_nodes":[],"categories_segments":[],"categories_sizes":[],"default_left":[0,0,0,0,0,0,0,0,0],"id":56,"left_children":[1,-1,3,5,7,-1,-1,-1,-1],"loss_changes":[7.5578303E0,0E0,5.9937987E0,8.825327E0,7.015674E0,0E0,0E0,0E0,0E0],"parents":[2147483647,0,0,2,2,3,3,4,4],"right_children":[2,-1,4,6,8,-1,-1,-1,-1],"split_conditions":[-8.328753E-1,4.609947E-2,5.8593035E-1,-1.0020396E0,-1.4390938E0,-3.6078453E-2,1.1152177E-2,5.3237736E-2,-3.4280844E-2],"split_indices":[0,0,571,84,649,0,0,0,0],"split_type":[0,0,0,0,0,0,0,0,0],"sum_hessian":[9.96822E1,7.249492E0,9.243271E1,7.006984E1,2.2362865E1,1.0841462E1,5.922838E1,1.664365E0,2.06985E1],"tree_param":{"num_deleted":"0","num_feature":"823","num_nodes":"9","size_leaf_vector":"1"}},{"base_weights":[4.7090957E-3,3.345641E-1,-2.1104726E-1,6.4181304E-1,-9.992064E-2,-9.0298176E-1,-6.364333E-2,6.9103E-4,4.739982E-2,2.0414703E-2,-3.83743E-2,2.2049485E-2,-5.4602917E-2,-3.9780512E-2,7.039813E-3],"categories":[],"categories_nodes":[],"categories_segments":[],"categories_sizes":[],"default_left":[0,0,0,0,0,0,0,0,0,0,0,0,0,0,0],"id":57,"left_children":[1,3,5,7,9,11,13,-1,-1,-1,-1,-1,-1,-1,-1],"loss_changes":[7.19308E0,5.398872E0,6.1761055E0,4.5138197E0,6.222984E0,3.1898031E0,7.8125906E0,0E0,0E0,0E0,0E0,0E0,0E0,0E0,0E0],"parents":[2147483647,0,0,1,1,2,2,3,3,4,4,5,5,6,6],"right_children":[2,4,6,8,10,12,14,-1,-1,-1,-1,-1,-1,-1,-1],"split_conditions":[-1.1881976E-1,-8.914122E-3,-7.975545E-1,-4.3054953E-1,3.3513615E-1,-1.020681E0,-6.1293805E-1,6.9103E-4,4.739982E-2,2.0414703E-2,-3.83743E-2,2.2049485E-2,-5.4602917E-2,-3.9780512E-2,7.039813E-3],"split_indices":[0,15,551,684,522,588,622,0,0,0,0,0,0,0,0],"split_type":[0,0,0,0,0,0,0,0,0,0,0,0,0,0,0],"sum_hessian":[9.907924E1,3.896211E1,6.0117134E1,2.2543283E1,1.6418825E1,9.657516E0,5.0459618E1,7.7312875E0,1.4811996E1,9.542524E0,6.876301E0,1.0267754E0,8.63074E0,1.0385204E1,4.0074413E1],"tree_param":{"num_deleted":"0","num_feature":"823","num_nodes":"15","size_leaf_vector":"1"}},{"base_weights":[4.101469E-3,4.56545E-2,-7.315286E-2,3.2229677E-1,-2.2837198E-1,-2.283452E-2,3.5320695E-2,-2.0238591E-2,2.1441577E-2],"categories":[],"categories_nodes":[],"categories_segments":[],"categories_sizes":[],"default_left":[0,0,0,0,0,0,0,0,0],"id":58,"left_children":[1,-1,3,5,7,-1,-1,-1,-1],"loss_changes":[7.0421686E0,0E0,5.7499256E0,8.246431E0,7.940345E0,0E0,0E0,0E0,0E0],"parents":[2147483647,0,0,2,2,3,3,4,4],"right_children":[2,-1,4,6,8,-1,-1,-1,-1],"split_conditions":[-8.328753E-1,4.56545E-2,-5.5506253E-1,-4.1698912E-1,8.8076466E-1,-2.283452E-2,3.5320695E-2,-2.0238591E-2,2.1441577E-2],"split_indices":[0,0,511,71,359,0,0,0,0],"split_type":[0,0,0,0,0,0,0,0,0],"sum_hessian":[9.833133E1,6.8549905E0,9.147634E1,2.548138E1,6.599496E1,8.352872E0,1.712851E1,5.2332504E1,1.36624565E1],"tree_param":{"num_deleted":"0","num_feature":"823","num_nodes":"9","size_leaf_vector":"1"}},{"base_weights":[4.524234E-3,1.548066E-1,-4.3979597E-1,-5.64716E-1,2.643328E-1,4.146188E-1,-8.024062E-1,4.0918373E-2,-4.2841945E-2,3.2826472E-2,-8.363483E-4,5.1781673E-2,-4.6052374E-2,-4.9155496E-2,4.5182146E-2],"categories":[],"categories_nodes":[],"categories_segments":[],"categories_sizes":[],"default_left":[0,0,0,0,0,0,0,0,0,0,0,0,0,0,0],"id":59,"left_children":[1,3,5,7,9,11,13,-1,-1,-1,-1,-1,-1,-1,-1],"loss_changes":[6.6676636E0,6.027844E0,8.152663E0,4.8116617E0,7.222417E0,7.738628E0,6.4563227E0,0E0,0E0,0E0,0E0,0E0,0E0,0E0,0E0],"parents":[2147483647,0,0,1,1,2,2,3,3,4,4,5,5,6,6],"right_children":[2,4,6,8,10,12,14,-1,-1,-1,-1,-1,-1,-1,-1],"split_conditions":[5.059789E-1,-1.1114459E0,-1.0277543E0,-8.249406E-1,-2.189864E-1,7.632263E-1,1.3330431E0,4.0918373E-2,-4.2841945E-2,3.2826472E-2,-8.363483E-4,5.1781673E-2,-4.6052374E-2,-4.9155496E-2,4.5182146E-2],"split_indices":[0,173,315,21,439,56,616,0,0,0,0,0,0,0,0],"split_type":[0,0,0,0,0,0,0,0,0,0,0,0,0,0,0],"sum_hessian":[9.7835335E1,7.3594925E1,2.4240412E1,9.173626E0,6.4421295E1,7.179649E0,1.7060764E1,1.2855619E0,7.888064E0,2.6335829E1,3.808547E1,5.0542974E0,2.1253514E0,1.5809935E1,1.2508285E0],"tree_param":{"num_deleted":"0","num_feature":"823","num_nodes":"15","size_leaf_vector":"1"}},{"base_weights":[4.476081E-3,4.5264427E-2,-6.955374E-2,-8.001547E-1,1.4166419E-2,-5.6877285E-2,3.830602E-2,-2.902368E-2,7.115882E-3],"categories":[],"categories_nodes":[],"categories_segments":[],"categories_sizes":[],"default_left":[0,0,0,0,0,0,0,0,0],"id":60,"left_children":[1,-1,3,5,7,-1,-1,-1,-1],"loss_changes":[6.6105976E0,0E0,5.6176324E0,5.860372E0,6.424022E0,0E0,0E0,0E0,0E0],"parents":[2147483647,0,0,2,2,3,3,4,4],"right_children":[2,-1,4,6,8,-1,-1,-1,-1],"split_conditions":[-8.328753E-1,4.5264427E-2,-1.0967573E0,1.0834802E0,-8.809968E-1,-5.6877285E-2,3.830602E-2,-2.902368E-2,7.115882E-3],"split_indices":[0,0,57,251,663,0,0,0,0],"split_type":[0,0,0,0,0,0,0,0,0],"sum_hessian":[9.7184555E1,6.527514E0,9.065704E1,8.440635E0,8.221641E1,7.169895E0,1.2707398E0,1.3951208E1,6.82652E1],"tree_param":{"num_deleted":"0","num_feature":"823","num_nodes":"9","size_leaf_vector":"1"}},{"base_weights":[4.3030367E-3,7.821723E-1,-7.74745E-2,-1.2284743E-2,4.6749074E-2,3.8905367E-1,-2.1945548E-1,-2.6426662E-2,3.6739815E-2,1.2837486E-2,-2.2542845E-2],"categories":[],"categories_nodes":[],"categories_segments":[],"categories_sizes":[],"default_left":[0,0,0,0,0,0,0,0,0,0,0],"id":61,"left_children":[1,3,5,-1,-1,7,9,-1,-1,-1,-1],"loss_changes":[6.272212E0,1.7029052E0,5.998378E0,0E0,0E0,7.110669E0,7.727934E0,0E0,0E0,0E0,0E0],"parents":[2147483647,0,0,1,1,2,2,5,5,6,6],"right_children":[2,4,6,-1,-1,8,10,-1,-1,-1,-1],"split_conditions":[-7.4361837E-1,-1.4753764E0,-6.9338894E-1,-1.2284743E-2,4.6749074E-2,-5.8533835E-1,-5.9535956E-1,-2.6426662E-2,3.6739815E-2,1.2837486E-2,-2.2542845E-2],"split_indices":[0,330,391,0,0,622,150,0,0,0,0],"split_type":[0,0,0,0,0,0,0,0,0,0,0],"sum_hessian":[9.66481E1,8.3793125E0,8.826879E1,1.0058217E0,7.3734903E0,2.0189371E1,6.807942E1,5.380651E0,1.4808721E1,2.2227499E1,4.585192E1],"tree_param":{"num_deleted":"0","num_feature":"823","num_nodes":"11","size_leaf_vector":"1"}},{"base_weights":[4.488394E-3,3.1323278E-1,-1.9480006E-1,9.839173E-1,1.0534474E-1,2.2549E-1,-4.2435634E-1,5.750184E-2,-8.243877E-3,5.172033E-2,-5.810905E-3,-2.2005374E-2,3.5958104E-2,2.2606086E-2,-3.1256713E-2],"categories":[],"categories_nodes":[],"categories_segments":[],"categories_sizes":[],"default_left":[0,0,0,0,0,0,0,0,0,0,0,0,0,0,0],"id":62,"left_children":[1,3,5,7,9,11,13,-1,-1,-1,-1,-1,-1,-1,-1],"loss_changes":[6.032278E0,5.257714E0,5.8454123E0,1.9031038E0,6.393147E0,7.44839E0,7.1264205E0,0E0,0E0,0E0,0E0,0E0,0E0,0E0,0E0],"parents":[2147483647,0,0,1,1,2,2,3,3,4,4,5,5,6,6],"right_children":[2,4,6,8,10,12,14,-1,-1,-1,-1,-1,-1,-1,-1],"split_conditions":[-1.1881976E-1,-1.9632851E0,-1.0649676E0,9.632083E-1,-9.4453967E-1,-1.91693E-1,-8.5830545E-1,5.750184E-2,-8.243877E-3,5.172033E-2,-5.810905E-3,-2.2005374E-2,3.5958104E-2,2.2606086E-2,-3.1256713E-2],"split_indices":[0,799,810,627,260,447,431,0,0,0,0,0,0,0,0],"split_type":[0,0,0,0,0,0,0,0,0,0,0,0,0,0,0],"sum_hessian":[9.604759E1,3.7452763E1,5.8594833E1,7.978796E0,2.9473965E1,2.0704708E1,3.7890125E1,6.9698515E0,1.0089447E0,4.969033E0,2.4504932E1,8.863254E0,1.18414545E1,6.828605E0,3.1061522E1],"tree_param":{"num_deleted":"0","num_feature":"823","num_nodes":"15","size_leaf_vector":"1"}},{"base_weights":[5.3214417E-3,4.449879E-2,-6.269059E-2,-5.1974095E-2,-1.9177526E-3,-1.3316517E-2,1.3363773E-2],"categories":[],"categories_nodes":[],"categories_segments":[],"categories_sizes":[],"default_left":[0,0,0,0,0,0,0],"id":63,"left_children":[1,-1,3,-1,5,-1,-1],"loss_changes":[5.847171E0,0E0,5.359455E0,0E0,6.194562E0,0E0,0E0],"parents":[2147483647,0,0,2,2,4,4],"right_children":[2,-1,4,-1,6,-1,-1],"split_conditions":[-8.328753E-1,4.449879E-2,-1.5629426E0,-5.1974095E-2,8.256477E-2,-1.3316517E-2,1.3363773E-2],"split_indices":[0,0,235,0,38,0,0],"split_type":[0,0,0,0,0,0,0],"sum_hessian":[9.525483E1,5.937557E0,8.931727E1,4.2882705E0,8.5029E1,4.2900757E1,4.2128242E1],"tree_param":{"num_deleted":"0","num_feature":"823","num_nodes":"7","size_leaf_vector":"1"}},{"base_weights":[5.0089397E-3,1.4452526E-1,-4.119328E-1,7.683743E-1,1.4889674E-2,4.0875342E-1,-7.7614105E-1,5.3643316E-2,-1.0096973E-2,8.324671E-3,-3.814362E-2,-2.0943362E-2,7.013781E-2,-4.8062224E-2,4.355448E-2],"categories":[],"categories_nodes":[],"categories_segments":[],"categories_sizes":[],"default_left":[0,0,0,0,0,0,0,0,0,0,0,0,0,0,0],"id":64,"left_children":[1,3,5,7,9,11,13,-1,-1,-1,-1,-1,-1,-1,-1],"loss_changes":[5.636098E0,5.857582E0,7.579202E0,3.8997416E0,7.331995E0,7.2699285E0,6.073407E0,0E0,0E0,0E0,0E0,0E0,0E0,0E0,0E0],"parents":[2147483647,0,0,1,1,2,2,3,3,4,4,5,5,6,6],"right_children":[2,4,6,8,10,12,14,-1,-1,-1,-1,-1,-1,-1,-1],"split_conditions":[5.059789E-1,-3.069161E0,-1.0277543E0,4.917552E-1,9.659204E-1,-3.31169E-3,1.3330431E0,5.3643316E-2,-1.0096973E-2,8.324671E-3,-3.814362E-2,-2.0943362E-2,7.013781E-2,-4.8062224E-2,4.355448E-2],"split_indices":[0,789,315,609,643,458,616,0,0,0,0,0,0,0,0],"split_type":[0,0,0,0,0,0,0,0,0,0,0,0,0,0,0],"sum_hessian":[9.486637E1,7.157083E1,2.3295538E1,1.1465911E1,6.0104923E1,7.1228976E0,1.6172642E1,8.6467905E0,2.81912E0,5.0957973E1,9.14695E0,4.202469E0,2.9204288E0,1.491325E1,1.2593912E0],"tree_param":{"num_deleted":"0","num_feature":"823","num_nodes":"15","size_leaf_vector":"1"}},{"base_weights":[5.258647E-3,4.4101533E-2,-6.0002293E-2,7.783047E-2,-4.8236033E-1,-3.37759E-2,1.1076033E-2,4.9375895E-2,-3.2418154E-2],"categories":[],"categories_nodes":[],"categories_segments":[],"categories_sizes":[],"default_left":[0,0,0,0,0,0,0,0,0],"id":65,"left_children":[1,-1,3,5,7,-1,-1,-1,-1],"loss_changes":[5.5004478E0,0E0,5.2504244E0,7.5510855E0,6.050154E0,0E0,0E0,0E0,0E0],"parents":[2147483647,0,0,2,2,3,3,4,4],"right_children":[2,-1,4,6,8,-1,-1,-1,-1],"split_conditions":[-8.328753E-1,4.4101533E-2,5.8593035E-1,-1.0020396E0,-1.4390938E0,-3.37759E-2,1.1076033E-2,4.9375895E-2,-3.2418154E-2],"split_indices":[0,0,571,84,649,0,0,0,0],"split_type":[0,0,0,0,0,0,0,0,0],"sum_hessian":[9.4204865E1,5.6591735E0,8.854569E1,6.737438E1,2.1171305E1,1.0199349E1,5.7175034E1,1.6461954E0,1.9525108E1],"tree_param":{"num_deleted":"0","num_feature":"823","num_nodes":"9","size_leaf_vector":"1"}},{"base_weights":[5.4084305E-3,9.808395E-2,-5.9052676E-1,9.5265126E-1,1.3376645E-2,-3.1069862E-2,-5.2493162E-2,6.630856E-2,-3.1115282E-2,-4.5397077E-3,4.9236886E-2,4.0925466E-2,-2.2154022E-2],"categories":[],"categories_nodes":[],"categories_segments":[],"categories_sizes":[],"default_left":[0,0,0,0,0,0,0,0,0,0,0,0,0],"id":66,"left_children":[1,3,5,7,9,11,-1,-1,-1,-1,-1,-1,-1],"loss_changes":[5.287557E0,5.9813156E0,3.2788706E0,5.2099395E0,7.815182E0,2.7570572E0,0E0,0E0,0E0,0E0,0E0,0E0,0E0],"parents":[2147483647,0,0,1,1,2,2,3,3,4,4,5,5],"right_children":[2,4,6,8,10,12,-1,-1,-1,-1,-1,-1,-1],"split_conditions":[1.2007952E0,-1.2907625E0,-7.126775E-1,7.089664E-1,1.2182583E0,6.517454E-2,-5.2493162E-2,6.630856E-2,-3.1115282E-2,-4.5397077E-3,4.9236886E-2,4.0925466E-2,-2.2154022E-2],"split_indices":[530,376,625,765,621,529,0,0,0,0,0,0,0],"split_type":[0,0,0,0,0,0,0,0,0,0,0,0,0],"sum_hessian":[9.369071E1,8.180449E1,1.1886229E1,6.4533777E0,7.5351105E1,5.840423E0,6.0458055E0,5.3439574E0,1.1094202E0,6.887169E1,6.479416E0,1.5851567E0,4.2552667E0],"tree_param":{"num_deleted":"0","num_feature":"823","num_nodes":"13","size_leaf_vector":"1"}},{"base_weights":[5.63404E-3,4.375252E-2,-5.7282396E-2,3.253079E-1,-2.0869821E-1,3.6388636E-2,-1.5143479E-2,6.0971216E-3,-2.6723882E-2],"categories":[],"categories_nodes":[],"categories_segments":[],"categories_sizes":[],"default_left":[0,0,0,0,0,0,0,0,0],"id":67,"left_children":[1,-1,3,5,7,-1,-1,-1,-1],"loss_changes":[5.2110767E0,0E0,5.2190895E0,6.693611E0,6.993111E0,0E0,0E0,0E0,0E0],"parents":[2147483647,0,0,2,2,3,3,4,4],"right_children":[2,-1,4,6,8,-1,-1,-1,-1],"split_conditions":[-8.328753E-1,4.375252E-2,-5.5506253E-1,2.4204539E-1,-1.4974742E-1,3.6388636E-2,-1.5143479E-2,6.0971216E-3,-2.6723882E-2],"split_indices":[0,0,511,672,245,0,0,0,0],"split_type":[0,0,0,0,0,0,0,0,0],"sum_hessian":[9.334912E1,5.4283834E0,8.792074E1,2.4604021E1,6.3316715E1,1.4899542E1,9.70448E0,3.1734438E1,3.158228E1],"tree_param":{"num_deleted":"0","num_feature":"823","num_nodes":"9","size_leaf_vector":"1"}},{"base_weights":[5.8429944E-3,1.1907419E-1,-4.6708256E-1,-5.157219E-1,2.3310603E-1,4.1896462E-1,-9.0447485E-1,-4.5207165E-2,2.0988585E-2,1.7846676E-2,-2.5532413E-2,6.2362887E-2,-2.876215E-2,-5.3620208E-2,2.3152234E-2],"categories":[],"categories_nodes":[],"categories_segments":[],"categories_sizes":[],"default_left":[0,0,0,0,0,0,0,0,0,0,0,0,0,0,0],"id":68,"left_children":[1,3,5,7,9,11,13,-1,-1,-1,-1,-1,-1,-1,-1],"loss_changes":[5.083238E0,5.661213E0,7.4865155E0,4.7282524E0,6.221908E0,6.2716656E0,3.3889914E0,0E0,0E0,0E0,0E0,0E0,0E0,0E0,0E0],"parents":[2147483647,0,0,1,1,2,2,3,3,4,4,5,5,6,6],"right_children":[2,4,6,8,10,12,14,-1,-1,-1,-1,-1,-1,-1,-1],"split_conditions":[6.8449277E-1,-8.8291216E-1,-1.177703E0,2.510329E-1,1.12886E0,-3.4527436E-1,1.217425E0,-4.5207165E-2,2.0988585E-2,1.7846676E-2,-2.5532413E-2,6.2362887E-2,-2.876215E-2,-5.3620208E-2,2.3152234E-2],"split_indices":[0,6,821,575,623,591,616,0,0,0,0,0,0,0,0],"split_type":[0,0,0,0,0,0,0,0,0,0,0,0,0,0,0],"sum_hessian":[9.2886604E1,7.554686E1,1.7339746E1,1.0967884E1,6.457897E1,5.7446523E0,1.1595095E1,7.773713E0,3.1941707E0,5.5807663E1,8.771311E0,2.9949658E0,2.7496867E0,1.0519161E1,1.0759335E0],"tree_param":{"num_deleted":"0","num_feature":"823","num_nodes":"15","size_leaf_vector":"1"}},{"base_weights":[5.110385E-3,4.336455E-2,-5.543424E-2,-2.5491744E-1,2.1790169E-1,-2.540192E-2,1.023663E-2,-2.929891E-2,2.3350907E-2],"categories":[],"categories_nodes":[],"categories_segments":[],"categories_sizes":[],"default_left":[0,0,0,0,0,0,0,0,0],"id":69,"left_children":[1,-1,3,5,7,-1,-1,-1,-1],"loss_changes":[4.9209585E0,0E0,4.862787E0,6.0875645E0,7.8306246E0,0E0,0E0,0E0,0E0],"parents":[2147483647,0,0,2,2,3,3,4,4],"right_children":[2,-1,4,6,8,-1,-1,-1,-1],"split_conditions":[-8.328753E-1,4.336455E-2,3.2901627E-1,7.765004E-1,-7.8769207E-1,-2.540192E-2,1.023663E-2,-2.929891E-2,2.3350907E-2],"split_indices":[0,0,628,736,84,0,0,0,0],"split_type":[0,0,0,0,0,0,0,0,0],"sum_hessian":[9.2349495E1,5.1852045E0,8.716429E1,5.042848E1,3.673581E1,3.245231E1,1.797617E1,8.371E0,2.8364809E1],"tree_param":{"num_deleted":"0","num_feature":"823","num_nodes":"9","size_leaf_vector":"1"}},{"base_weights":[5.103427E-3,-8.220226E-1,6.7562416E-2,9.356851E-3,-5.5246808E-2,-9.2555815E-1,1.2800492E-1,-5.0716873E-2,-1.4317267E-2,2.8156806E-2,-8.7954145E-4],"categories":[],"categories_nodes":[],"categories_segments":[],"categories_sizes":[],"default_left":[0,0,0,0,0,0,0,0,0,0,0],"id":70,"left_children":[1,3,5,-1,-1,7,9,-1,-1,-1,-1],"loss_changes":[4.856087E0,2.0911698E0,5.3601875E0,0E0,0E0,7.390976E-4,5.2803793E0,0E0,0E0,0E0,0E0],"parents":[2147483647,0,0,1,1,2,2,5,5,6,6],"right_children":[2,4,6,-1,-1,8,10,-1,-1,-1,-1],"split_conditions":[-1.6326768E0,-7.1143913E-1,-1.5629426E0,9.356851E-3,-5.5246808E-2,3.207474E-1,-6.4298004E-1,-5.0716873E-2,-1.4317267E-2,2.8156806E-2,-8.7954145E-4],"split_indices":[574,589,235,0,0,404,695,0,0,0,0],"split_type":[0,0,0,0,0,0,0,0,0,0,0],"sum_hessian":[9.192323E1,5.600216E0,8.632301E1,1.300355E0,4.299861E0,4.131185E0,8.219183E1,3.1120965E0,1.0190884E0,1.9887558E1,6.230427E1],"tree_param":{"num_deleted":"0","num_feature":"823","num_nodes":"11","size_leaf_vector":"1"}},{"base_weights":[3.8893265E-3,9.2626154E-2,-5.7373554E-1,6.719411E-1,-2.8655307E-2,-2.8479984E-2,-5.1297277E-2,4.4525422E-2,-3.7966616E-2,1.5208475E-2,-1.7536169E-2,3.893633E-2,-2.0947097E-2],"categories":[],"categories_nodes":[],"categories_segments":[],"categories_sizes":[],"default_left":[0,0,0,0,0,0,0,0,0,0,0,0,0],"id":71,"left_children":[1,3,5,7,9,11,-1,-1,-1,-1,-1,-1,-1],"loss_changes":[4.808726E0,5.7304063E0,3.051464E0,5.0909767E0,7.4143343E0,2.4357285E0,0E0,0E0,0E0,0E0,0E0,0E0,0E0],"parents":[2147483647,0,0,1,1,2,2,3,3,4,4,5,5],"right_children":[2,4,6,8,10,12,-1,-1,-1,-1,-1,-1,-1],"split_conditions":[1.2007952E0,-1.0074854E0,-7.126775E-1,7.669789E-1,3.0402787E-2,6.517454E-2,-5.1297277E-2,4.4525422E-2,-3.7966616E-2,1.5208475E-2,-1.7536169E-2,3.893633E-2,-2.0947097E-2],"split_indices":[530,37,625,92,161,529,0,0,0,0,0,0,0],"split_type":[0,0,0,0,0,0,0,0,0,0,0,0,0],"sum_hessian":[9.177992E1,8.0285774E1,1.1494149E1,1.3112424E1,6.7173355E1,5.6928873E0,5.801262E0,1.1703086E1,1.4093378E0,3.306234E1,3.411101E1,1.5318023E0,4.161085E0],"tree_param":{"num_deleted":"0","num_feature":"823","num_nodes":"13","size_leaf_vector":"1"}},{"base_weights":[3.3397675E-3,2.8541097E-1,-1.762894E-1,4.7870528E-2,8.6272997E-1,8.4530205E-2,-5.43027E-1,4.293437E-2,-9.787825E-3,-1.3583078E-2,5.7038363E-2,-1.0698565E-2,4.2983264E-2,-3.780051E-2,3.603283E-2],"categories":[],"categories_nodes":[],"categories_segments":[],"categories_sizes":[],"default_left":[0,0,0,0,0,0,0,0,0,0,0,0,0,0,0],"id":72,"left_children":[1,3,5,7,9,11,13,-1,-1,-1,-1,-1,-1,-1,-1],"loss_changes":[4.734171E0,4.9432316E0,5.507126E0,5.464125E0,3.6332617E0,8.10421E0,6.9676046E0,0E0,0E0,0E0,0E0,0E0,0E0,0E0,0E0],"parents":[2147483647,0,0,1,1,2,2,3,3,4,4,5,5,6,6],"right_children":[2,4,6,8,10,12,14,-1,-1,-1,-1,-1,-1,-1,-1],"split_conditions":[-1.1881976E-1,5.423603E-1,1.9607355E-1,-1.9632851E0,-1.4606425E0,6.521445E-1,1.3735907E0,4.293437E-2,-9.787825E-3,-1.3583078E-2,5.7038363E-2,-1.0698565E-2,4.2983264E-2,-3.780051E-2,3.603283E-2],"split_indices":[0,535,439,799,424,129,348,0,0,0,0,0,0,0,0],"split_type":[0,0,0,0,0,0,0,0,0,0,0,0,0,0,0],"sum_hessian":[9.1441696E1,3.5347195E1,5.60945E1,2.5810337E1,9.536859E0,3.323071E1,2.2863792E1,5.3801203E0,2.0430216E1,1.881849E0,7.6550093E0,2.4514301E1,8.716407E0,1.990989E1,2.9539027E0],"tree_param":{"num_deleted":"0","num_feature":"823","num_nodes":"15","size_leaf_vector":"1"}},{"base_weights":[4.3436517E-3,4.08835E-1,-1.2268165E-1,6.1837643E-1,-7.3994493E-1,5.732587E-2,-5.5039376E-1,-4.6318113E-3,5.091847E-2,-4.2233456E-2,-1.1234174E-2,1.6962633E-2,-1.4958645E-2,5.0220687E-2,-3.651558E-2],"categories":[],"categories_nodes":[],"categories_segments":[],"categories_sizes":[],"default_left":[0,0,0,0,0,0,0,0,0,0,0,0,0,0,0],"id":73,"left_children":[1,3,5,7,9,11,13,-1,-1,-1,-1,-1,-1,-1,-1],"loss_changes":[4.760571E0,5.7871203E0,5.462256E0,5.5746174E0,1.9082785E-2,5.182017E0,6.604484E0,0E0,0E0,0E0,0E0,0E0,0E0,0E0,0E0],"parents":[2147483647,0,0,1,1,2,2,3,3,4,4,5,5,6,6],"right_children":[2,4,6,8,10,12,14,-1,-1,-1,-1,-1,-1,-1,-1],"split_conditions":[-6.9338894E-1,1.0866721E0,4.2438465E-1,-2.0535395E-3,2.2053266E-1,7.269946E-2,-1.2990135E0,-4.6318113E-3,5.091847E-2,-4.2233456E-2,-1.1234174E-2,1.6962633E-2,-1.4958645E-2,5.0220687E-2,-3.651558E-2],"split_indices":[391,668,219,461,17,672,504,0,0,0,0,0,0,0,0],"split_type":[0,0,0,0,0,0,0,0,0,0,0,0,0,0,0],"sum_hessian":[9.067684E1,2.114034E1,6.95365E1,1.8269611E1,2.8707302E0,4.954915E1,1.9987352E1,6.854217E0,1.1415395E1,1.854509E0,1.0162212E0,2.769541E1,2.185374E1,1.597708E0,1.8389645E1],"tree_param":{"num_deleted":"0","num_feature":"823","num_nodes":"15","size_leaf_vector":"1"}},{"base_weights":[4.1958187E-3,4.2855922E-2,-5.387226E-2,-5.687386E-1,4.9838122E-2,4.728553E-2,-3.9138477E-2,1.260437E-2,-2.1285977E-2],"categories":[],"categories_nodes":[],"categories_segments":[],"categories_sizes":[],"default_left":[0,0,0,0,0,0,0,0,0],"id":74,"left_children":[1,-1,3,5,7,-1,-1,-1,-1],"loss_changes":[4.5686793E0,0E0,4.643621E0,5.4636116E0,7.1152077E0,0E0,0E0,0E0,0E0],"parents":[2147483647,0,0,2,2,3,3,4,4],"right_children":[2,-1,4,6,8,-1,-1,-1,-1],"split_conditions":[-8.328753E-1,4.2855922E-2,-8.0821246E-1,-1.1412172E0,4.608987E-1,4.728553E-2,-3.9138477E-2,1.260437E-2,-2.1285977E-2],"split_indices":[0,0,551,588,229,0,0,0,0],"split_type":[0,0,0,0,0,0,0,0,0],"sum_hessian":[9.031285E1,4.8795705E0,8.543328E1,1.3571947E1,7.1861336E1,1.2572535E0,1.2314693E1,5.074849E1,2.1112843E1],"tree_param":{"num_deleted":"0","num_feature":"823","num_nodes":"9","size_leaf_vector":"1"}},{"base_weights":[4.4574505E-3,8.991897E-2,-5.561786E-1,2.5481698E-1,-2.926557E-1,-2.7175935E-2,-4.985317E-2,2.0334493E-2,-2.9107047E-2,-3.3490017E-2,1.6305748E-2,3.7084483E-2,-1.9828154E-2],"categories":[],"categories_nodes":[],"categories_segments":[],"categories_sizes":[],"default_left":[0,0,0,0,0,0,0,0,0,0,0,0,0],"id":75,"left_children":[1,3,5,7,9,11,-1,-1,-1,-1,-1,-1,-1],"loss_changes":[4.4042583E0,5.103684E0,2.8089678E0,7.3857403E0,5.9304314E0,2.1559827E0,0E0,0E0,0E0,0E0,0E0,0E0,0E0],"parents":[2147483647,0,0,1,1,2,2,3,3,4,4,5,5],"right_children":[2,4,6,8,10,12,-1,-1,-1,-1,-1,-1,-1],"split_conditions":[1.2007952E0,4.261788E-1,-7.126775E-1,1.0136272E0,3.3676186E-1,6.517454E-2,-4.985317E-2,2.0334493E-2,-2.9107047E-2,-3.3490017E-2,1.6305748E-2,3.7084483E-2,-1.9828154E-2],"split_indices":[530,109,625,557,717,529,0,0,0,0,0,0,0],"split_type":[0,0,0,0,0,0,0,0,0,0,0,0,0],"sum_hessian":[8.987856E1,7.8718575E1,1.1159987E1,5.524201E1,2.3476566E1,5.555623E0,5.604365E0,4.7192608E1,8.0494E0,1.4534951E1,8.941614E0,1.4758348E0,4.079788E0],"tree_param":{"num_deleted":"0","num_feature":"823","num_nodes":"13","size_leaf_vector":"1"}},{"base_weights":[3.5243584E-3,2.7908722E-1,-1.7117974E-1,-8.22249E-1,3.9153403E-1,3.0072225E-2,-6.155479E-1,-5.1881056E-2,-7.839453E-3,-3.0833937E-3,3.7624042E-2,-3.807856E-2,1.09664E-2,4.0292844E-2,-4.277778E-2],"categories":[],"categories_nodes":[],"categories_segments":[],"categories_sizes":[],"default_left":[0,0,0,0,0,0,0,0,0,0,0,0,0,0,0],"id":76,"left_children":[1,3,5,7,9,11,13,-1,-1,-1,-1,-1,-1,-1,-1],"loss_changes":[4.4080086E0,4.720992E0,5.030951E0,3.551829E-1,5.4295907E0,6.0896516E0,6.665701E0,0E0,0E0,0E0,0E0,0E0,0E0,0E0,0E0],"parents":[2147483647,0,0,1,1,2,2,3,3,4,4,5,5,6,6],"right_children":[2,4,6,8,10,12,14,-1,-1,-1,-1,-1,-1,-1,-1],"split_conditions":[-1.1881976E-1,-1.263585E0,3.2455817E-1,-4.7534293E-1,-1.4172362E-2,-5.292447E-1,-1.4442585E0,-5.1881056E-2,-7.839453E-3,-3.0833937E-3,3.7624042E-2,-3.807856E-2,1.09664E-2,4.0292844E-2,-4.277778E-2],"split_indices":[0,493,714,631,768,526,137,0,0,0,0,0,0,0,0],"split_type":[0,0,0,0,0,0,0,0,0,0,0,0,0,0,0],"sum_hessian":[8.957035E1,3.4521572E1,5.504878E1,2.6133492E0,3.1908224E1,3.853074E1,1.651804E1,1.5518485E0,1.0615007E0,1.4513872E1,1.7394352E1,6.8507032E0,3.1680037E1,2.0456133E0,1.4472426E1],"tree_param":{"num_deleted":"0","num_feature":"823","num_nodes":"15","size_leaf_vector":"1"}},{"base_weights":[2.6784379E-3,4.238416E-2,-5.306999E-2,3.184704E-1,-2.0022467E-1,-1.8988809E-2,3.2069955E-2,-1.8361405E-2,2.008309E-2],"categories":[],"categories_nodes":[],"categories_segments":[],"categories_sizes":[],"default_left":[0,0,0,0,0,0,0,0,0],"id":77,"left_children":[1,-1,3,5,7,-1,-1,-1,-1],"loss_changes":[4.279546E0,0E0,4.725738E0,5.7852807E0,6.3485813E0,0E0,0E0,0E0,0E0],"parents":[2147483647,0,0,2,2,3,3,4,4],"right_children":[2,-1,4,6,8,-1,-1,-1,-1],"split_conditions":[-8.328753E-1,4.238416E-2,-5.5506253E-1,-4.1698912E-1,8.8076466E-1,-1.8988809E-2,3.2069955E-2,-1.8361405E-2,2.008309E-2],"split_indices":[0,0,511,71,359,0,0,0,0],"split_type":[0,0,0,0,0,0,0,0,0],"sum_hessian":[8.8891045E1,4.6223555E0,8.426869E1,2.357689E1,6.06918E1,7.400108E0,1.6176783E1,4.781469E1,1.287711E1],"tree_param":{"num_deleted":"0","num_feature":"823","num_nodes":"9","size_leaf_vector":"1"}},{"base_weights":[3.1964483E-3,1.13697916E-1,-4.2837024E-1,4.2051435E-1,-1.897199E-1,5.1004994E-1,-7.2128904E-1,2.9909207E-2,-2.5561197E-2,-5.3567555E-2,1.9931733E-3,-2.4194583E-2,5.282253E-2,1.2552335E-2,-4.942575E-2],"categories":[],"categories_nodes":[],"categories_segments":[],"categories_sizes":[],"default_left":[0,0,0,0,0,0,0,0,0,0,0,0,0,0,0],"id":78,"left_children":[1,3,5,7,9,11,13,-1,-1,-1,-1,-1,-1,-1,-1],"loss_changes":[4.3171206E0,6.7871795E0,5.440995E0,6.287706E0,7.5145493E0,3.2136908E0,4.010423E0,0E0,0E0,0E0,0E0,0E0,0E0,0E0,0E0],"parents":[2147483647,0,0,1,1,2,2,3,3,4,4,5,5,6,6],"right_children":[2,4,6,8,10,12,14,-1,-1,-1,-1,-1,-1,-1,-1],"split_conditions":[8.188951E-1,3.0402787E-2,-9.006907E-1,1.3412361E0,-9.491898E-1,1.4204395E-1,-7.464625E-1,2.9909207E-2,-2.5561197E-2,-5.3567555E-2,1.9931733E-3,-2.4194583E-2,5.282253E-2,1.2552335E-2,-4.942575E-2],"split_indices":[78,161,493,463,757,596,419,0,0,0,0,0,0,0,0],"split_type":[0,0,0,0,0,0,0,0,0,0,0,0,0,0,0],"sum_hessian":[8.8505714E1,7.105008E1,1.7455631E1,3.51353E1,3.591478E1,3.97612E0,1.3479512E1,2.9809103E1,5.326198E0,6.6626816E0,2.92521E1,1.4510174E0,2.5251026E0,2.9189792E0,1.0560533E1],"tree_param":{"num_deleted":"0","num_feature":"823","num_nodes":"15","size_leaf_vector":"1"}},{"base_weights":[2.3292634E-3,1.0549793E-1,-4.360831E-1,-5.1428E-1,2.157606E-1,3.9269927E-1,-8.710136E-1,3.2036435E-2,-3.939527E-2,1.671491E-2,-2.4601815E-2,5.550601E-2,-2.6958207E-2,2.291451E-2,-5.2216794E-2],"categories":[],"categories_nodes":[],"categories_segments":[],"categories_sizes":[],"default_left":[0,0,0,0,0,0,0,0,0,0,0,0,0,0,0],"id":79,"left_children":[1,3,5,7,9,11,13,-1,-1,-1,-1,-1,-1,-1,-1],"loss_changes":[4.0739884E0,5.0925164E0,6.5273376E0,4.0777907E0,5.415822E0,5.007511E0,3.143013E0,0E0,0E0,0E0,0E0,0E0,0E0,0E0,0E0],"parents":[2147483647,0,0,1,1,2,2,3,3,4,4,5,5,6,6],"right_children":[2,4,6,8,10,12,14,-1,-1,-1,-1,-1,-1,-1,-1],"split_conditions":[6.8449277E-1,-8.8291216E-1,-1.177703E0,-1.0341729E0,1.12886E0,-3.4527436E-1,-1.3325213E0,3.2036435E-2,-3.939527E-2,1.671491E-2,-2.4601815E-2,5.550601E-2,-2.6958207E-2,2.291451E-2,-5.2216794E-2],"split_indices":[0,6,821,592,623,591,265,0,0,0,0,0,0,0,0],"split_type":[0,0,0,0,0,0,0,0,0,0,0,0,0,0,0],"sum_hessian":[8.805473E1,7.1895424E1,1.6159307E1,1.0305406E1,6.1590015E1,5.5949473E0,1.0564361E1,1.7168269E0,8.588579E0,5.3206932E1,8.383085E0,3.0531244E0,2.541823E0,1.0289123E0,9.535448E0],"tree_param":{"num_deleted":"0","num_feature":"823","num_nodes":"15","size_leaf_vector":"1"}},{"base_weights":[1.9009216E-3,3.8251346E-1,-1.17501356E-1,5.787896E-1,-3.5687182E-2,-2.8128347E-1,3.1934598E-1,-4.24633E-3,4.7457825E-2,3.3279132E-2,-2.0427803E-2,-3.6885496E-2,2.8670097E-2],"categories":[],"categories_nodes":[],"categories_segments":[],"categories_sizes":[],"default_left":[0,0,0,0,0,0,0,0,0,0,0,0,0],"id":80,"left_children":[1,3,5,7,-1,9,11,-1,-1,-1,-1,-1,-1],"loss_changes":[4.0688744E0,5.013178E0,4.966825E0,4.6736293E0,0E0,6.310519E0,5.5404143E0,0E0,0E0,0E0,0E0,0E0,0E0],"parents":[2147483647,0,0,1,1,2,2,3,3,5,5,6,6],"right_children":[2,4,6,8,-1,10,12,-1,-1,-1,-1,-1,-1],"split_conditions":[-6.9338894E-1,1.0866721E0,6.781232E-1,-2.0535395E-3,-3.5687182E-2,-3.4332795E0,-2.5195777E0,-4.24633E-3,4.7457825E-2,3.3279132E-2,-2.0427803E-2,-3.6885496E-2,2.8670097E-2],"split_indices":[391,668,363,461,0,795,800,0,0,0,0,0,0],"split_type":[0,0,0,0,0,0,0,0,0,0,0,0,0],"sum_hessian":[8.754307E1,2.0378859E1,6.716421E1,1.76846E1,2.6942565E0,4.9108597E1,1.8055613E1,6.6099443E0,1.1074657E1,5.317625E0,4.3790974E1,3.1297724E0,1.4925841E1],"tree_param":{"num_deleted":"0","num_feature":"823","num_nodes":"13","size_leaf_vector":"1"}},{"base_weights":[1.920822E-3,7.152743E-1,-6.2153853E-2,4.432262E-2,-8.858949E-3,-5.901482E-1,4.2036075E-2,4.42661E-2,-4.0283818E-2,1.2110106E-2,-2.1093015E-2],"categories":[],"categories_nodes":[],"categories_segments":[],"categories_sizes":[],"default_left":[0,0,0,0,0,0,0,0,0,0,0],"id":81,"left_children":[1,3,5,-1,-1,7,9,-1,-1,-1,-1],"loss_changes":[4.0764623E0,1.2799561E0,4.5281825E0,0E0,0E0,5.024847E0,6.537487E0,0E0,0E0,0E0,0E0],"parents":[2147483647,0,0,1,1,2,2,5,5,6,6],"right_children":[2,4,6,-1,-1,8,10,-1,-1,-1,-1],"split_conditions":[-7.4361837E-1,1.0722276E0,-8.0821246E-1,4.432262E-2,-8.858949E-3,-1.1412172E0,4.608987E-1,4.42661E-2,-4.0283818E-2,1.2110106E-2,-2.1093015E-2],"split_indices":[0,462,551,0,0,588,229,0,0,0,0],"split_type":[0,0,0,0,0,0,0,0,0,0,0],"sum_hessian":[8.721245E1,6.35031E0,8.086214E1,5.333949E0,1.0163609E0,1.2558146E1,6.830399E1,1.2045194E0,1.1353626E1,4.8049202E1,2.0254793E1],"tree_param":{"num_deleted":"0","num_feature":"823","num_nodes":"11","size_leaf_vector":"1"}},{"base_weights":[2.1711974E-3,-1.2381791E-1,3.5176674E-1,1.6523054E-1,-4.316356E-1,-1.9976335E-2,1.0222791E0,-4.0883563E-2,1.5281132E-2,-3.3309698E-2,1.9845482E-2,2.2573514E-2,-3.8379606E-2,6.653183E-2,-1.8600566E-2],"categories":[],"categories_nodes":[],"categories_segments":[],"categories_sizes":[],"default_left":[0,0,0,0,0,0,0,0,0,0,0,0,0,0,0],"id":82,"left_children":[1,3,5,7,9,11,13,-1,-1,-1,-1,-1,-1,-1,-1],"loss_changes":[3.9084568E0,5.876204E0,5.879529E0,4.992691E0,6.4585285E0,6.0222282E0,4.1078606E0,0E0,0E0,0E0,0E0,0E0,0E0,0E0,0E0],"parents":[2147483647,0,0,1,1,2,2,3,3,4,4,5,5,6,6],"right_children":[2,4,6,8,10,12,14,-1,-1,-1,-1,-1,-1,-1,-1],"split_conditions":[6.410317E-1,-1.1460556E-2,5.5649835E-1,-1.0314696E0,7.211445E-1,2.3820803E-1,5.929666E-1,-4.0883563E-2,1.5281132E-2,-3.3309698E-2,1.9845482E-2,2.2573514E-2,-3.8379606E-2,6.653183E-2,-1.8600566E-2],"split_indices":[69,747,11,359,298,0,600,0,0,0,0,0,0,0,0],"split_type":[0,0,0,0,0,0,0,0,0,0,0,0,0,0,0],"sum_hessian":[8.674848E1,6.424232E1,2.2506165E1,3.337014E1,3.0872175E1,1.5103014E1,7.4031506E0,3.5677438E0,2.9802397E1,2.4213392E1,6.6587825E0,9.505172E0,5.5978427E0,6.0997915E0,1.3033594E0],"tree_param":{"num_deleted":"0","num_feature":"823","num_nodes":"15","size_leaf_vector":"1"}},{"base_weights":[1.9135113E-3,4.166656E-2,-5.0873615E-2,-7.22204E-1,2.4586424E-2,-5.4945808E-2,2.6815196E-2,-2.5771046E-2,6.9962214E-3],"categories":[],"categories_nodes":[],"categories_segments":[],"categories_sizes":[],"default_left":[0,0,0,0,0,0,0,0,0],"id":83,"left_children":[1,-1,3,5,7,-1,-1,-1,-1],"loss_changes":[3.8709357E0,0E0,4.2208323E0,4.5796027E0,4.7777576E0,0E0,0E0,0E0,0E0],"parents":[2147483647,0,0,2,2,3,3,4,4],"right_children":[2,-1,4,6,8,-1,-1,-1,-1],"split_conditions":[-8.328753E-1,4.166656E-2,-1.0967573E0,8.473985E-1,-8.809968E-1,-5.4945808E-2,2.6815196E-2,-2.5771046E-2,6.9962214E-3],"split_indices":[0,0,57,251,663,0,0,0,0],"split_type":[0,0,0,0,0,0,0,0,0],"sum_hessian":[8.6234055E1,4.265419E0,8.1968636E1,7.416555E0,7.455208E1,5.80557E0,1.6109849E0,1.2510358E1,6.204172E1],"tree_param":{"num_deleted":"0","num_feature":"823","num_nodes":"9","size_leaf_vector":"1"}},{"base_weights":[1.7264963E-3,-8.58762E-1,5.1661536E-2,-4.746209E-2,-1.3166129E-2,-7.590811E-1,1.13390155E-1,-5.114771E-2,1.2702218E-2,2.5671655E-2,-1.1739447E-3],"categories":[],"categories_nodes":[],"categories_segments":[],"categories_sizes":[],"default_left":[0,0,0,0,0,0,0,0,0,0,0],"id":84,"left_children":[1,3,5,-1,-1,7,9,-1,-1,-1,-1],"loss_changes":[3.7749596E0,9.6542835E-3,4.2400327E0,0E0,0E0,1.8645725E0,4.2828426E0,0E0,0E0,0E0,0E0],"parents":[2147483647,0,0,1,1,2,2,5,5,6,6],"right_children":[2,4,6,-1,-1,8,10,-1,-1,-1,-1],"split_conditions":[-1.5629426E0,3.207474E-1,-1.6326768E0,-4.746209E-2,-1.3166129E-2,8.2319415E-1,-6.4298004E-1,-5.114771E-2,1.2702218E-2,2.5671655E-2,-1.1739447E-3],"split_indices":[235,404,574,0,0,801,695,0,0,0,0],"split_type":[0,0,0,0,0,0,0,0,0,0,0],"sum_hessian":[8.5821556E1,3.8187456E0,8.2002815E1,2.799206E0,1.0195395E0,5.002535E0,7.700028E1,3.961137E0,1.0413976E0,1.8927479E1,5.80728E1],"tree_param":{"num_deleted":"0","num_feature":"823","num_nodes":"11","size_leaf_vector":"1"}},{"base_weights":[7.251539E-4,3.2923162E-1,-1.2841602E-1,-8.736462E-2,8.045339E-1,1.8004867E-1,-3.9758348E-1,2.5516247E-2,-2.6675178E-2,5.2722197E-2,-2.6414135E-2,-2.1032363E-3,5.676675E-2,-3.144121E-2,2.6534135E-2],"categories":[],"categories_nodes":[],"categories_segments":[],"categories_sizes":[],"default_left":[0,0,0,0,0,0,0,0,0,0,0,0,0,0,0],"id":85,"left_children":[1,3,5,7,9,11,13,-1,-1,-1,-1,-1,-1,-1,-1],"loss_changes":[3.7190068E0,4.9683714E0,5.2965918E0,4.027921E0,4.4382024E0,6.415922E0,7.6141768E0,0E0,0E0,0E0,0E0,0E0,0E0,0E0,0E0],"parents":[2147483647,0,0,1,1,2,2,3,3,4,4,5,5,6,6],"right_children":[2,4,6,8,10,12,14,-1,-1,-1,-1,-1,-1,-1,-1],"split_conditions":[-5.5506253E-1,1.4264025E-1,-1.5750623E-1,-3.719584E-1,1.8165144E0,8.336392E-1,9.665764E-1,2.5516247E-2,-2.6675178E-2,5.2722197E-2,-2.6414135E-2,-2.1032363E-3,5.676675E-2,-3.144121E-2,2.6534135E-2],"split_indices":[511,45,449,478,639,683,416,0,0,0,0,0,0,0,0],"split_type":[0,0,0,0,0,0,0,0,0,0,0,0,0,0,0],"sum_hessian":[8.566682E1,2.3736652E1,6.193017E1,1.3084474E1,1.0652179E1,2.9012764E1,3.2917404E1,5.530896E0,7.5535774E0,9.146098E0,1.5060806E0,2.4315207E1,4.697557E0,2.6610928E1,6.3064756E0],"tree_param":{"num_deleted":"0","num_feature":"823","num_nodes":"15","size_leaf_vector":"1"}},{"base_weights":[1.528372E-3,2.6573378E-1,-1.6430669E-1,9.228314E-1,6.980505E-2,7.605662E-2,-5.1648426E-1,5.3787947E-2,-1.9845737E-3,4.381685E-2,-7.903204E-3,-9.767188E-3,3.769841E-2,-3.594284E-2,3.124476E-2],"categories":[],"categories_nodes":[],"categories_segments":[],"categories_sizes":[],"default_left":[0,0,0,0,0,0,0,0,0,0,0,0,0,0,0],"id":86,"left_children":[1,3,5,7,9,11,13,-1,-1,-1,-1,-1,-1,-1,-1],"loss_changes":[3.823574E0,4.2678757E0,4.578278E0,1.1683383E0,5.10126E0,6.171151E0,5.502996E0,0E0,0E0,0E0,0E0,0E0,0E0,0E0,0E0],"parents":[2147483647,0,0,1,1,2,2,3,3,4,4,5,5,6,6],"right_children":[2,4,6,8,10,12,14,-1,-1,-1,-1,-1,-1,-1,-1],"split_conditions":[-1.1881976E-1,-1.9632851E0,1.9607355E-1,7.4805564E-1,-8.555059E-1,6.521445E-1,1.3735907E0,5.3787947E-2,-1.9845737E-3,4.381685E-2,-7.903204E-3,-9.767188E-3,3.769841E-2,-3.594284E-2,3.124476E-2],"split_indices":[0,799,439,365,260,129,348,0,0,0,0,0,0,0,0],"split_type":[0,0,0,0,0,0,0,0,0,0,0,0,0,0,0],"sum_hessian":[8.527076E1,3.2650375E1,5.2620384E1,6.6472087E0,2.6003168E1,3.1741001E1,2.0879385E1,5.634365E0,1.0128438E0,5.101359E0,2.090181E1,2.3174847E1,8.566153E0,1.804933E1,2.830055E0],"tree_param":{"num_deleted":"0","num_feature":"823","num_nodes":"15","size_leaf_vector":"1"}},{"base_weights":[2.7462076E-3,3.729562E-1,-1.12810194E-1,-3.789142E-1,6.5900314E-1,5.701817E-2,-5.201963E-1,1.6527753E-2,-3.8628258E-2,-8.138751E-3,4.6694696E-2,-1.5126131E-2,1.5629433E-2,8.832365E-3,-4.612767E-2],"categories":[],"categories_nodes":[],"categories_segments":[],"categories_sizes":[],"default_left":[0,0,0,0,0,0,0,0,0,0,0,0,0,0,0],"id":87,"left_children":[1,3,5,7,9,11,13,-1,-1,-1,-1,-1,-1,-1,-1],"loss_changes":[3.702995E0,4.677848E0,4.5949497E0,2.0174499E0,3.6037574E0,4.4567437E0,5.634081E0,0E0,0E0,0E0,0E0,0E0,0E0,0E0,0E0],"parents":[2147483647,0,0,1,1,2,2,3,3,4,4,5,5,6,6],"right_children":[2,4,6,8,10,12,14,-1,-1,-1,-1,-1,-1,-1,-1],"split_conditions":[-6.9338894E-1,-5.8533835E-1,4.2438465E-1,-4.4076598E-1,-6.554347E-1,-2.0214094E-1,-5.823073E-1,1.6527753E-2,-3.8628258E-2,-8.138751E-3,4.6694696E-2,-1.5126131E-2,1.5629433E-2,8.832365E-3,-4.612767E-2],"split_indices":[391,622,219,56,562,624,732,0,0,0,0,0,0,0,0],"split_type":[0,0,0,0,0,0,0,0,0,0,0,0,0,0,0],"sum_hessian":[8.457528E1,1.9589283E1,6.498599E1,5.3092747E0,1.4280009E1,4.647278E1,1.8513216E1,1.9518243E0,3.3574505E0,3.6816568E0,1.0598352E1,1.9232487E1,2.7240294E1,6.9820123E0,1.1531205E1],"tree_param":{"num_deleted":"0","num_feature":"823","num_nodes":"15","size_leaf_vector":"1"}},{"base_weights":[2.3221856E-3,4.121847E-2,-4.8960034E-2,-1.8419252E-1,2.9095694E-1,-3.7332784E-2,-2.9566677E-4,4.8508793E-2,-3.653353E-3],"categories":[],"categories_nodes":[],"categories_segments":[],"categories_sizes":[],"default_left":[0,0,0,0,0,0,0,0,0],"id":88,"left_children":[1,-1,3,5,7,-1,-1,-1,-1],"loss_changes":[3.6310828E0,0E0,3.7824345E0,5.8761096E0,5.8750873E0,0E0,0E0,0E0,0E0],"parents":[2147483647,0,0,2,2,3,3,4,4],"right_children":[2,-1,4,6,8,-1,-1,-1,-1],"split_conditions":[-8.328753E-1,4.121847E-2,5.887753E-1,-6.0556364E-1,-5.431213E-1,-3.7332784E-2,-2.9566677E-4,4.8508793E-2,-3.653353E-3],"split_indices":[0,0,69,663,281,0,0,0,0],"split_type":[0,0,0,0,0,0,0,0,0],"sum_hessian":[8.417618E1,4.0576367E0,8.011854E1,5.7643703E1,2.2474833E1,1.3106173E1,4.4537533E1,7.26123E0,1.5213603E1],"tree_param":{"num_deleted":"0","num_feature":"823","num_nodes":"9","size_leaf_vector":"1"}},{"base_weights":[2.7820321E-3,1.0652909E-1,-4.1105953E-1,3.9010486E-1,-1.7678532E-1,4.573204E-1,-6.859675E-1,-1.5075171E-2,2.9717667E-2,-5.0969493E-2,1.9856528E-3,-2.3336079E-2,4.8226625E-2,1.192788E-2,-4.7240097E-2],"categories":[],"categories_nodes":[],"categories_segments":[],"categories_sizes":[],"default_left":[0,0,0,0,0,0,0,0,0,0,0,0,0,0,0],"id":89,"left_children":[1,3,5,7,9,11,13,-1,-1,-1,-1,-1,-1,-1,-1],"loss_changes":[3.6836157E0,5.5785236E0,4.4194107E0,5.0646143E0,6.423903E0,2.669599E0,3.447085E0,0E0,0E0,0E0,0E0,0E0,0E0,0E0,0E0],"parents":[2147483647,0,0,1,1,2,2,3,3,4,4,5,5,6,6],"right_children":[2,4,6,8,10,12,14,-1,-1,-1,-1,-1,-1,-1,-1],"split_conditions":[8.188951E-1,3.0402787E-2,-9.006907E-1,-1.0196058E0,-9.491898E-1,1.4204395E-1,-7.464625E-1,-1.5075171E-2,2.9717667E-2,-5.0969493E-2,1.9856528E-3,-2.3336079E-2,4.8226625E-2,1.192788E-2,-4.7240097E-2],"split_indices":[78,161,493,411,757,596,419,0,0,0,0,0,0,0,0],"split_type":[0,0,0,0,0,0,0,0,0,0,0,0,0,0,0],"sum_hessian":[8.377557E1,6.757708E1,1.6198496E1,3.358458E1,3.3992496E1,3.73544E0,1.2463056E1,7.5484657E0,2.6036116E1,6.1905494E0,2.7801949E1,1.3520665E0,2.3833735E0,2.74316E0,9.719895E0],"tree_param":{"num_deleted":"0","num_feature":"823","num_nodes":"15","size_leaf_vector":"1"}},{"base_weights":[2.0378921E-3,-3.518638E-1,1.22019745E-1,-6.345453E-1,2.9475856E-1,-4.9010918E-1,2.5951284E-1,1.1587164E-2,-4.5219723E-2,4.1250084E-2,-1.9009164E-2,2.9391905E-2,-3.9073862E-2,1.83675E-2,-2.7290935E-2],"categories":[],"categories_nodes":[],"categories_segments":[],"categories_sizes":[],"default_left":[0,0,0,0,0,0,0,0,